,0,1,2,3,4,5,6,7,8,9,10,11,12,13,14,15,16,17,18,19,20,21,22,23,24,25,26,27,28,29,30,31,32,33,34,35,36,37,38,39,40,41,42,43,44,45,46,47,48,49
akurasi,1.0338284,-0.1749028,-0.031396665,0.29350793,0.44732222,-0.37479866,1.0206133,-0.08591055,-0.08265002,0.40293628,0.040164925,0.5146134,-0.6801896,0.94089293,1.0482274,0.27489957,0.48835132,-0.017939065,-0.053645678,-0.21915722,0.19541475,0.4193792,0.08017982,-0.3573351,0.50372237,-0.86059606,0.42870083,0.57375497,-1.1747503,-0.19917451,0.4880616,0.49013877,-0.10015149,0.79339564,-0.07301238,0.09276277,-0.079124406,0.29793382,-0.3633942,0.25018835,-0.14637956,-0.39513034,0.20851187,-0.7455877,0.57216734,0.11558018,0.3463368,-0.16035908,0.28096673,0.5535136
uji,0.8129582,-0.046949804,-0.07369458,0.24662368,0.31509587,-0.45805365,0.7023651,0.008252918,0.12880981,0.44715372,0.08941929,0.37251446,-0.3963771,0.5437137,0.5781693,0.21249247,0.36583233,-0.14454691,-0.00531597,-0.24305704,0.04068904,0.24171802,-0.048582297,-0.014557706,0.44683796,-0.62141705,0.26633567,0.26974055,-0.9098424,-0.2867388,0.3506618,0.3206322,0.026074555,0.6325506,-0.10703821,-0.05663675,-0.14250478,0.42567018,-0.43091908,0.28018188,-0.31447512,-0.088380516,0.06618719,-0.3194209,0.35025257,0.09746283,0.13432144,-0.11681481,0.122044995,0.34912047
algoritma,0.81948656,0.06432514,0.02777064,-0.041250143,0.40551603,-0.34655696,0.80865335,-0.006499297,0.07168405,0.02307369,-0.119844414,0.43322587,-0.43489987,0.6537262,0.8215854,0.3252574,0.5790447,-0.11811959,-0.2468839,-0.016302638,0.35290658,0.34312978,0.07399076,-0.392774,0.5175536,-0.8743665,0.50590485,0.4110496,-0.76071167,-0.33105907,0.21852428,0.17503364,0.39176604,0.67249274,-0.3498499,0.115152545,-0.14590205,0.07227357,-0.21767591,0.2349672,0.03721218,-0.4634773,-0.011102504,-0.7333085,0.8891677,0.54432577,-0.055199273,-0.45708525,0.35913676,0.45197392
sistem,0.6164654,-0.18845798,0.0058798105,0.18354629,-0.24158199,-0.33734983,0.82780766,0.4779999,0.115212806,0.8905013,-0.22859001,0.18572634,-0.2291457,0.41306624,0.22473265,-0.28830615,0.39482322,-0.014556336,-0.31542256,-0.10026058,-0.6083369,-0.032202985,0.04338673,-0.33027482,0.3988294,-0.14404094,0.028913846,0.30079055,-0.5402812,-0.79454595,0.22078218,0.15672632,0.30849952,0.4927283,-0.057303943,-0.57360774,0.10134921,0.0767261,-0.13772087,-0.14447117,-0.049082752,-5.6748413e-05,0.20089619,-0.4395311,0.46374807,0.4804172,0.2060224,-0.021692915,0.057287805,0.38480806
cluster,1.3863925,0.11363805,-0.38857183,-0.10089644,0.22913685,-1.0410581,0.9533721,0.42246118,0.33103043,0.56916326,-0.031255737,0.5667893,-0.27734116,0.61196953,0.13546123,0.51660764,0.76638114,-0.6079491,-0.11898547,-0.1675602,-0.14159639,0.28584105,-0.2454602,0.14574295,0.9686784,-1.1177634,0.4958171,-0.04829598,-1.3099103,-0.60571986,0.13706541,0.15550315,0.7145561,0.84358454,-0.75622445,-0.13040999,-0.6460395,0.9601208,-1.2246755,0.5521489,-0.7437793,0.17843428,-0.30635813,0.08716565,0.53200936,0.5926024,-0.015811887,-0.7853444,-0.008115142,0.52461433
klasifikasi,0.7721146,-0.2296444,0.07606608,0.10800985,0.22686169,-0.13283932,0.8988261,0.032826867,-0.0231768,0.24111709,-0.10844154,0.31163868,-0.5325186,0.5999145,0.91315216,0.0061477064,0.37646425,0.05704646,-0.27353683,-0.03561451,0.16250205,0.21545953,0.28606132,-0.59532493,0.31014225,-0.5189066,0.43766105,0.57997024,-0.71767724,-0.3622939,0.36420667,0.3202472,0.13561898,0.6047987,-0.15520652,-0.031518105,-0.10515305,-0.21708477,0.06198966,-0.06715691,0.19738278,-0.5101028,0.31426394,-0.87180936,0.7076783,0.45787993,0.20369615,-0.31553987,0.40525073,0.48042962
dasar,0.85721815,-0.0018458108,-0.18992184,-0.01353458,0.12609993,-0.6163092,0.6727072,0.30227914,0.18356243,0.45509383,-0.064694196,0.38283035,-0.23419666,0.45873109,0.19410403,0.2290087,0.40591437,-0.27441803,-0.16484512,-0.068438746,-0.18473496,0.16710441,-0.026149487,-0.008436314,0.5413454,-0.57936865,0.266309,0.12214444,-0.82253677,-0.4297761,0.15787588,0.16999535,0.35597745,0.568566,-0.37563804,-0.1420932,-0.34012356,0.5141462,-0.6462382,0.22050251,-0.33758008,0.08426673,-0.038422305,-0.093577385,0.35343453,0.35220787,0.10265743,-0.3978452,0.004798804,0.34583855
sakit,0.4924003,-0.16570644,0.102176756,0.015127605,-0.037425946,-0.4041862,0.71511656,0.38492006,0.07731013,0.6485748,-0.2939416,0.30212742,-0.2894615,0.44889173,0.3410659,-0.24942207,0.2873474,0.024644606,-0.6535763,-0.016137501,-0.47823963,0.0954674,0.20251083,-0.45750445,0.28994593,-0.114143066,0.17568293,0.48238087,-0.2555198,-0.8196618,0.24766445,-0.017895315,0.31603688,0.4556516,-0.22076385,-0.39287847,-0.10927315,-0.1516915,0.042885043,-0.19039652,0.22112654,-0.27068704,0.29932916,-0.63545734,0.64774334,0.7353893,0.07283247,-0.029936934,0.063274175,0.47691497
salah,0.5373964,-0.10744301,-0.060729552,-0.053003952,-0.21786208,-0.45848718,0.85247487,0.5112802,0.32089287,0.72352874,-0.3520806,0.103564724,-0.15121935,0.26988122,0.1006258,-0.22107702,0.35530725,-0.18089348,-0.41625693,0.061407104,-0.6595375,-0.1612831,0.13227841,-0.18710805,0.43707943,-0.10071759,-0.0057893274,0.2561821,-0.46486816,-0.91853255,0.07892759,0.036754943,0.6320875,0.45495072,-0.2541316,-0.6968512,-0.07898299,0.05135194,-0.20490691,-0.2006761,0.015213001,0.13795415,0.17014965,-0.37175882,0.42303798,0.7035948,0.089338355,-0.19617619,0.07081056,0.27834985
milik,0.7313927,-0.08285592,-0.110145114,0.07240467,0.06180301,-0.45571575,0.76468277,0.30045986,0.1781869,0.49247348,-0.121374264,0.23824774,-0.21249563,0.38977465,0.2633545,0.052959077,0.33186838,-0.2179935,-0.18929535,-0.056569036,-0.2656135,0.07230841,0.04657469,-0.09156607,0.43272248,-0.3880582,0.19510026,0.19878708,-0.66386783,-0.47589117,0.20535988,0.18242541,0.3384,0.5192976,-0.25805563,-0.24822572,-0.21772532,0.3157096,-0.4010842,0.019013068,-0.20465086,0.051393405,0.10585593,-0.23166853,0.3104547,0.3874906,0.09223285,-0.32583413,0.08471232,0.31337675
indonesia,0.78547513,-0.00930671,-0.17346233,-0.06825894,-0.013782643,-0.63162655,0.81435734,0.46207145,0.33888248,0.5909613,-0.20420557,0.23805967,-0.114464134,0.26855087,0.037362408,-0.0026758602,0.3542888,-0.34657058,-0.29965532,-0.0061087753,-0.4881049,-0.0723998,0.048144717,-0.000413289,0.5144971,-0.36654586,0.15057018,0.098931685,-0.6605441,-0.69624597,0.1176705,0.07642979,0.6178454,0.508712,-0.4222712,-0.43942782,-0.36761415,0.39346555,-0.5461509,-0.04953433,-0.27046004,0.18600623,0.08734012,-0.09359119,0.32589447,0.6189544,0.007258098,-0.49446362,0.03575348,0.33074644
aplikasi,0.6130535,-0.23598258,0.009799055,0.075590126,-0.1046805,-0.17417568,0.87065226,0.2745731,0.11449393,0.5476478,-0.20347747,0.117771484,-0.31383726,0.40764448,0.44995874,-0.21614583,0.3366692,0.009070313,-0.28371546,-0.019450711,-0.29536024,-0.05134256,0.19435091,-0.4198792,0.34380862,-0.23670863,0.16859554,0.3770427,-0.5928202,-0.5319859,0.21116741,0.22845125,0.24570978,0.4642795,-0.10666215,-0.3951012,0.012209771,-0.10639099,-0.0076521104,-0.16426411,0.09137475,-0.1293408,0.31190702,-0.589982,0.41298586,0.4728604,0.22825202,-0.18385261,0.21531656,0.35355675
guna,0.63308996,-0.14000438,-0.017178468,0.05740123,-0.010290459,-0.22536598,0.7697035,0.24866705,0.1301376,0.4860179,-0.15367483,0.13841932,-0.2644765,0.32924816,0.39287186,-0.12175011,0.30045158,-0.03612986,-0.2768469,-0.05074316,-0.23193441,-0.028322702,0.1676684,-0.3289602,0.32377008,-0.2751044,0.20371394,0.32881048,-0.58013195,-0.50187445,0.23258257,0.18584897,0.25702658,0.4542673,-0.12476596,-0.32973006,-0.074458964,-0.022900758,-0.07425061,-0.1319452,0.014411312,-0.14067657,0.26623026,-0.4684541,0.414357,0.44368058,0.1343345,-0.2647208,0.20028438,0.31855506
bayes,1.154341,-0.119220644,0.06989612,0.32682848,0.51712614,-0.23273697,1.1225857,0.08018064,-0.052760303,0.13442282,-0.005240713,0.4443212,-0.5045254,0.48961467,1.2535216,0.16070881,0.3776297,-0.18941312,-0.25319105,-0.19173023,0.33723006,0.29536688,0.25799024,-0.5462417,0.1802632,-0.64783555,0.7324686,0.7158459,-0.8242982,-0.53989106,0.67585987,0.3519622,0.39047167,0.8561205,-0.18853956,0.16926776,-0.44010925,-0.14315706,-0.00827144,-0.362926,0.054879762,-0.73974293,0.40054837,-0.89715946,1.0577965,0.6523403,-0.21818079,-0.98209167,0.6699719,0.65208894
proses,0.68816084,-0.12147278,-0.012580289,0.11695616,0.019272354,-0.3266583,0.8283484,0.26735073,0.18430082,0.53061897,-0.10840983,0.21347442,-0.28165093,0.41999164,0.4108572,0.0008800124,0.34883776,-0.17188181,-0.11722649,-0.0608417,-0.255604,0.08642833,0.038740285,-0.18327904,0.43229762,-0.38932154,0.14480966,0.2573609,-0.7516495,-0.5728791,0.18912603,0.24196303,0.34902903,0.52926195,-0.1382709,-0.3297851,-0.0027129713,0.19246402,-0.25865293,-0.02054099,-0.14657657,-0.02409964,0.09023886,-0.40691882,0.4055743,0.35312566,0.0906031,-0.24852702,0.16630574,0.25037667
recall,1.1956874,-0.12008794,-0.060693346,0.31851935,0.64593595,-0.4439073,1.1428539,-0.15545197,-0.050539654,0.31730166,0.025369003,0.5920183,-0.77368534,1.0600097,1.2453675,0.38077044,0.5549379,-0.11679743,-0.09572544,-0.23577517,0.33602676,0.5236418,0.089013696,-0.351981,0.58190453,-1.0762078,0.5299222,0.65015084,-1.3178408,-0.1706432,0.6024635,0.55405885,-0.08495481,0.9546055,-0.12757587,0.18943948,-0.16492939,0.3710921,-0.42605194,0.3167768,-0.17950849,-0.49830335,0.21048288,-0.859319,0.71945757,0.1500129,0.31468225,-0.283768,0.38230634,0.6215493
analisis,0.8196936,-0.2155021,-0.013010968,0.090401396,0.1842034,-0.12008901,0.9308401,0.09731849,0.09387909,0.29663712,-0.13354798,0.14171155,-0.3255149,0.2942418,0.67056507,-0.11917028,0.21796967,-0.048316237,-0.30553344,-0.039888516,0.018287169,0.0061797746,0.3311299,-0.46539092,0.20967245,-0.38501984,0.41239542,0.48034737,-0.62646294,-0.3905718,0.35162303,0.28627074,0.22641602,0.53340524,-0.16513218,-0.14415258,-0.18552615,-0.15750834,0.09730215,-0.23188502,0.1107721,-0.39067522,0.45618948,-0.6747479,0.5498048,0.5546071,0.11173161,-0.5197457,0.42678532,0.43472517
presisi,1.1294326,-0.181823,-0.019542051,0.3098034,0.58403605,-0.4507512,1.1451908,-0.12937322,-0.050929952,0.37631604,0.070006534,0.59336644,-0.740257,1.0708389,1.1782771,0.37763852,0.53969765,-0.09141483,-0.004131022,-0.20717132,0.25500715,0.4621189,0.08513099,-0.3326234,0.60446817,-1.0672683,0.48635823,0.618805,-1.3282498,-0.14029226,0.5087536,0.5703176,-0.047450572,0.9089072,-0.13377123,0.18727314,-0.09928174,0.39680535,-0.48255292,0.33601582,-0.18849578,-0.43490252,0.19344257,-0.7917217,0.6146951,0.10050912,0.37113097,-0.19339857,0.3113925,0.60778457
oleh,1.0069106,-0.07603442,-0.1249475,0.22689505,0.4500001,-0.48418054,0.86748785,-0.027149104,0.031811953,0.29689774,0.07373544,0.47285903,-0.51013064,0.72812384,0.7865638,0.3581603,0.45186412,-0.20658885,-0.0038911027,-0.22182259,0.18532556,0.39011,0.004499703,-0.13258645,0.5050607,-0.8712771,0.46836644,0.36079174,-1.0835484,-0.20626897,0.4057494,0.39017075,0.07333828,0.74057466,-0.24358486,0.14285845,-0.26971966,0.45570758,-0.5338001,0.31082278,-0.31416085,-0.26446533,0.040283736,-0.42019814,0.4828886,0.15924755,0.19011249,-0.33755234,0.24035293,0.4777703
neighbor,0.87949055,-0.14980723,0.10144649,0.049129266,0.51031256,-0.22548608,1.226032,-0.14222896,0.046281572,0.07033998,-0.16914427,0.44682336,-0.76913285,1.0331496,1.3198088,0.22755535,0.66526973,-0.06443411,-0.22011498,-0.14899541,0.48085034,0.365377,0.14037597,-0.6695392,0.618106,-1.0072005,0.568941,0.6865346,-0.94011986,-0.31483284,0.37649387,0.4471334,0.25120875,0.86357576,-0.2572915,0.087937176,0.01626427,-0.08201699,-0.07952476,0.32222018,0.12774262,-0.6871485,0.095380835,-1.2366608,1.019707,0.5704929,0.19178063,-0.25866684,0.6092547,0.71149683
terap,0.61217904,-0.04590497,0.034656625,0.08184783,0.14001392,-0.26131815,0.7744928,0.10900894,0.18193392,0.33384863,-0.16875067,0.22324716,-0.27829757,0.4210089,0.52996886,0.020015633,0.3926652,-0.048349522,-0.23620103,-0.06793873,-0.051238474,0.11084569,0.047057908,-0.27475917,0.38715407,-0.43298945,0.20687045,0.30308896,-0.5459182,-0.48211336,0.20635691,0.1286107,0.3420663,0.5214466,-0.16242172,-0.22323969,0.0093874205,0.03649901,-0.094221644,0.047699638,0.021515423,-0.2083154,0.10910821,-0.56754154,0.5930059,0.4410405,-0.014160915,-0.2120189,0.2610865,0.35305214
tuju,0.57737696,-0.09261025,0.033991165,0.085982226,0.1345258,-0.25247824,0.7666569,0.14496915,0.08340482,0.37313098,-0.14931218,0.22089776,-0.33393338,0.5186112,0.5381096,0.021820284,0.34461907,-0.09106533,-0.20986344,-0.049447916,-0.11219184,0.1093764,0.101594254,-0.26645854,0.36794204,-0.43607283,0.19223014,0.35588333,-0.6057496,-0.38628384,0.24401394,0.2133448,0.22681175,0.5224568,-0.11861286,-0.17761539,0.010976721,0.074646086,-0.1365977,0.023500096,-0.00085370836,-0.19284377,0.15227206,-0.53643537,0.4613764,0.36080533,0.11462619,-0.17840111,0.21386547,0.3578274
ajar,0.58573407,-0.06472356,0.0032272094,-0.043402493,-0.14801495,-0.31926173,0.7240273,0.37933528,0.25661552,0.5960892,-0.2705488,0.20941606,-0.20317325,0.20838442,0.27496725,-0.17427897,0.27177513,-0.00833264,-0.37960184,0.11688492,-0.41038734,-0.012409256,0.20632085,-0.35341775,0.3336718,-0.17246205,0.07056885,0.27899352,-0.53954464,-0.6797718,0.092038244,0.15456526,0.36208048,0.491586,-0.18170832,-0.5039835,-0.07672549,-0.09680712,-0.12872683,-0.23226152,0.022397533,-0.09021044,0.19747528,-0.46267697,0.5407871,0.5299097,0.08690407,-0.26392686,0.13707024,0.2282104
sentimen,0.88932306,-0.25673008,-0.012356925,0.15056002,0.33211666,-0.081058994,1.1090815,-0.0016791599,0.14907712,0.18735527,-0.13544716,0.005294599,-0.32658932,0.2994781,0.80087554,-0.15227042,0.18248865,-0.07527509,-0.22598675,-0.10726838,0.08505399,-0.05425741,0.44219476,-0.5184257,0.15877329,-0.42937657,0.435961,0.5201356,-0.6410782,-0.30259338,0.39162698,0.39974487,0.2523688,0.57729155,-0.21630888,-0.13553926,-0.18854886,-0.21452811,0.23542003,-0.30940092,0.20001754,-0.48102415,0.4920856,-0.7931526,0.51572657,0.5510966,0.14489157,-0.5878707,0.56406087,0.5109969
jember,0.60268706,-0.046234477,-0.0776647,-0.08960851,-0.1608195,-0.4880526,0.7470911,0.5556771,0.24573803,0.65786076,-0.3222133,0.17710176,-0.15776074,0.28863385,0.054300647,-0.06364326,0.38424426,-0.3437461,-0.2872932,0.08320918,-0.53816545,-0.060512148,0.023439243,-0.11341213,0.53615123,-0.2782692,0.0055047963,0.22015381,-0.61349666,-0.82323587,0.13628992,0.10024677,0.64548326,0.49230832,-0.3619115,-0.5183679,-0.12237833,0.16332403,-0.40556133,-0.082182884,-0.19057994,0.1776409,0.0032844325,-0.26109323,0.37203184,0.5955324,0.0437252,-0.3404173,0.04685858,0.2555821
hitung,0.62360716,-0.030158043,0.021833925,0.19848074,0.20095898,-0.40403914,0.85196745,0.09612423,0.2784872,0.4812708,-0.07696458,0.21963908,-0.27826732,0.47951546,0.48174572,0.06804683,0.38883722,-0.18401578,-0.087840654,-0.17354333,-0.17288698,0.12244167,-0.07699984,-0.06624647,0.46196827,-0.43603766,0.120191224,0.30345082,-0.617373,-0.5163887,0.22167477,0.18794383,0.29767296,0.6051939,-0.080287874,-0.2618664,0.067166805,0.31943202,-0.25856805,0.17091532,-0.14700986,-0.023778997,0.075851455,-0.45854893,0.44045153,0.3117556,-1.0850398e-05,-0.024690881,0.18687266,0.38265184
amal,0.4664072,-0.1254444,0.100726604,0.3553703,0.14891425,-0.46381614,1.1779402,0.15493447,0.5088942,0.6865402,-0.21641096,-0.0075308788,-0.12989567,0.31339446,0.40751106,-0.15649885,0.23199978,-0.42658508,-0.050152693,-0.16236547,-0.60138315,-0.0760307,-0.088686086,0.17828818,0.38476562,-0.1889446,-0.07508633,0.2510185,-0.4593256,-0.83751637,0.20292006,0.19265808,0.6225176,0.62199885,0.06316036,-0.60095155,0.24305879,0.42429602,-0.17810893,-0.1001947,-0.18451995,0.12688106,0.11645082,-0.44034967,0.26751763,0.38150606,-0.19762649,0.012508035,0.22951098,0.23750477
masyarakat,0.6691277,-0.15124886,-0.0883206,-0.046068586,-0.17834045,-0.35079637,0.87525684,0.4768133,0.2491451,0.6695981,-0.27996668,0.088189736,-0.15557243,0.2404038,0.16442059,-0.23261255,0.29042992,-0.12778093,-0.40268004,0.020455385,-0.5303857,-0.1556815,0.23100543,-0.28773355,0.40927607,-0.14870854,0.11986346,0.2721722,-0.5593091,-0.71924025,0.14230794,0.13456629,0.47233188,0.45106164,-0.2660265,-0.561177,-0.15324803,0.005117289,-0.1549361,-0.26169884,-0.014631703,0.053842206,0.29794374,-0.3607548,0.3791007,0.65787166,0.16450408,-0.38312235,0.1347665,0.30086115
tentu,0.7594964,-0.0727823,-0.122069836,-0.00021213145,-0.022588547,-0.45960075,0.69577676,0.3374899,0.19050787,0.524616,-0.16231629,0.2843468,-0.23769757,0.4412183,0.20623647,0.12136586,0.4356926,-0.17657463,-0.1550445,-0.0343368,-0.2231644,0.1405148,-0.0038597023,-0.15206388,0.51787734,-0.462928,0.19550116,0.17870331,-0.728891,-0.5286387,0.12348514,0.15491591,0.4096197,0.54976207,-0.30622706,-0.2861348,-0.13871333,0.33884022,-0.455641,0.16316481,-0.22203563,0.08026372,-0.056964397,-0.21680947,0.4253275,0.37020484,0.11064283,-0.28980145,0.065062724,0.27464506
provinsi,1.1022942,0.020124612,-0.3131278,-0.080363475,-0.013307177,-0.9530295,1.0094477,0.6022549,0.44424015,0.74783826,-0.17042103,0.37669298,-0.15757252,0.4404928,-0.058474522,0.20614417,0.55058837,-0.60111874,-0.18204364,-0.05059302,-0.57158047,0.032858685,-0.15821141,0.21678989,0.80095345,-0.61313057,0.20271246,-0.044078596,-0.9854486,-0.8201134,0.06867301,0.10213384,0.854269,0.7068114,-0.6210769,-0.46256408,-0.4794142,0.8391323,-1.0160766,0.23666881,-0.60337174,0.40487343,-0.16938221,0.109306715,0.32054654,0.6376754,-0.04241149,-0.6135899,-0.06376167,0.39461845
knearest,0.8091819,-0.08096456,0.16011375,0.057177927,0.5188127,-0.18853657,1.1134843,-0.09246339,0.10223547,0.062741764,-0.16631259,0.39881644,-0.6724059,0.99655527,1.2632575,0.25984892,0.69176054,-0.11491516,-0.17948303,-0.12896557,0.41275093,0.37173027,0.1375891,-0.66260487,0.6599185,-1.0266448,0.6454263,0.6171154,-0.92054594,-0.35205352,0.3454474,0.3345242,0.23950443,0.8003064,-0.34345153,0.13084286,0.08383885,-0.14193109,-0.006126121,0.31158674,0.18562482,-0.65846556,0.03643827,-1.1606704,1.0233133,0.6120895,0.18499011,-0.26530996,0.57144594,0.68746215
kembang,0.5268694,-0.10617728,0.028207297,-0.042965505,-0.14797747,-0.2678099,0.82669455,0.34745336,0.22237815,0.58121395,-0.2633654,0.11689297,-0.26163712,0.4424823,0.3459351,-0.20357211,0.4249805,-0.013802466,-0.34469068,-0.0039309547,-0.41797364,-0.11006223,0.12290372,-0.3665784,0.49032167,-0.25212383,0.075711556,0.32353586,-0.53078574,-0.6588666,0.12531596,0.09907736,0.35763326,0.4388351,-0.18837388,-0.5343473,0.042790283,-0.09235286,-0.060401045,-0.060142625,0.11012626,-0.028845653,0.23683181,-0.5620841,0.44313604,0.6144474,0.19983794,-0.059956905,0.1496282,0.36737153
tinggi,1.1876458,-0.046572164,-0.08757501,0.35140762,0.6883489,-0.5332862,1.1624439,-0.16280514,0.0906329,0.35827512,0.098246485,0.5837476,-0.6985977,0.9513042,1.1846151,0.41657242,0.53344804,-0.19488177,0.0056375046,-0.29201454,0.27963397,0.45327863,0.009574396,-0.16057909,0.59155375,-1.0701729,0.49262977,0.567112,-1.3162405,-0.23279132,0.57161665,0.5224692,0.01585206,0.96688783,-0.15384519,0.13478658,-0.17950825,0.47982496,-0.5260707,0.35897624,-0.28742656,-0.3962976,0.16362281,-0.7257927,0.63413,0.14135745,0.22972755,-0.2760583,0.3794044,0.61242884
putus,0.58305424,-0.28110245,0.08375011,0.14231266,-0.27737236,-0.20612055,0.9251079,0.45722136,0.114033826,0.82478887,-0.21210395,0.09811379,-0.23410755,0.45144236,0.27084255,-0.26674464,0.35041177,-0.019730004,-0.17447065,7.125735e-05,-0.51614964,0.013193963,0.07604648,-0.3859137,0.44035462,-0.15730886,0.09098527,0.33941785,-0.69378656,-0.7941348,0.15073293,0.21638635,0.40809467,0.4890167,-0.020524302,-0.55448705,0.20268239,0.08387572,-0.060443144,-0.1987646,-0.024208058,0.01846939,0.21055001,-0.52825004,0.5096709,0.43540394,0.19432679,-0.14951453,0.07454415,0.20939875
kelompok,0.8860072,0.061269283,-0.19348468,-0.17369336,0.025416302,-0.7386029,0.7340729,0.43786258,0.31033656,0.52221394,-0.18081962,0.3587384,-0.17564192,0.43161318,0.016467223,0.21139376,0.5032688,-0.37690216,-0.25220716,0.030905195,-0.32526037,0.09253725,-0.044845846,0.043529943,0.69925475,-0.6241408,0.22600578,0.038319014,-0.84536654,-0.6439049,0.019416306,0.07483796,0.6632647,0.5690948,-0.5608496,-0.32964766,-0.3606591,0.5508303,-0.7595406,0.2397073,-0.34732547,0.24068257,-0.115352005,-0.045968827,0.41290787,0.570184,0.031864867,-0.46380064,-0.044830896,0.3124253
siswa,0.61544836,-0.14107844,0.07498146,0.0706712,-0.07656367,-0.21738532,0.74839914,0.3520263,0.12061684,0.5388595,-0.2612121,0.31512633,-0.35028562,0.4517685,0.48308042,-0.017599737,0.3599844,0.054930873,-0.27781284,0.11962049,-0.18042427,0.11391468,0.20648053,-0.49044687,0.39845675,-0.33101085,0.11532295,0.42251408,-0.6711096,-0.56664276,0.2044839,0.24862725,0.29385674,0.5616909,-0.14651658,-0.3808614,0.066016294,-0.10886661,-0.10436043,-0.077599205,0.08214729,-0.15382548,0.12897089,-0.5909626,0.6059395,0.41553313,0.18798418,-0.20219925,0.19668214,0.23446026
banding,0.6876928,0.005799274,-0.0060878433,0.2637854,0.37018532,-0.37985608,0.93162537,-0.0046823593,0.23802274,0.272715,-0.03494329,0.2836833,-0.2941043,0.47501045,0.71017414,0.16776375,0.4156904,-0.24668857,-0.040096227,-0.21298765,0.0029313876,0.15319614,-0.13168918,-0.05558471,0.39777622,-0.5653436,0.22022909,0.32871392,-0.6209682,-0.4287584,0.32811555,0.19532102,0.37248138,0.6580462,-0.120051675,-0.08523758,-0.015942203,0.2964642,-0.2525129,0.15145518,-0.16936328,-0.22024395,0.0578441,-0.5298533,0.5677062,0.3587764,-0.12777442,-0.23104104,0.36212325,0.4840087
prediksi,0.5917557,-0.14892949,0.07981821,0.095634215,0.118890874,-0.28397325,0.8716996,0.16252613,0.16343613,0.4720779,-0.16712533,0.2096204,-0.34353757,0.57178414,0.5479062,-0.020317832,0.33582094,-0.062348317,-0.20421404,-0.03582608,-0.195237,0.124113806,0.10692705,-0.3030271,0.43689448,-0.41128916,0.17906457,0.39880764,-0.64751667,-0.49230906,0.18181807,0.22895262,0.29681477,0.54647285,-0.097098105,-0.30212626,0.07043644,0.08464346,-0.114936344,0.0072832084,0.02616222,-0.1436916,0.18645754,-0.6015949,0.46102092,0.38981417,0.0963591,-0.06254341,0.18495004,0.324849
butuh,0.63479686,-0.1411797,0.0019406815,0.0025905627,-0.183139,-0.36558342,0.8073978,0.50658494,0.21813644,0.695875,-0.25620916,0.12476758,-0.13935098,0.26546592,0.13103752,-0.21759742,0.27297932,-0.15703394,-0.36298004,0.008230821,-0.5398604,-0.11036207,0.1598795,-0.22636293,0.4026309,-0.14949156,0.08468603,0.27345023,-0.5473322,-0.7533367,0.1930671,0.08973952,0.5129178,0.48130366,-0.21800323,-0.5449717,-0.13054673,0.076151654,-0.1996193,-0.2564129,-0.062354613,0.06407852,0.23571606,-0.32721934,0.39040086,0.61979,0.0649536,-0.34575126,0.119147636,0.27403024
k,0.63876784,-0.018218664,-0.03087638,0.1018438,0.35862494,-0.27281058,0.5864767,-0.041227616,0.05024402,0.24136198,0.06623873,0.34503067,-0.4456861,0.5786394,0.66415805,0.23294719,0.3669889,-0.097271994,0.012920603,-0.21264002,0.2067005,0.26368833,0.01922178,-0.16567782,0.43431622,-0.6932065,0.37830928,0.2921824,-0.82780814,-0.18311444,0.26336804,0.30753055,-0.005976839,0.5433384,-0.18857144,0.026651537,-0.07394043,0.16737944,-0.27892467,0.3172136,-0.15360507,-0.23064926,-0.01711084,-0.4309253,0.4120503,0.13935372,0.21722968,-0.0906721,0.20677267,0.33596924
bas,0.61118215,-0.14789903,0.051485628,0.14429927,-0.08593486,-0.12680224,0.65672404,0.4308033,0.026100542,0.49114355,-0.17282607,0.1718988,-0.16168225,0.19832066,0.36416006,-0.21406087,0.23984578,-0.05245507,-0.2824239,-0.0536506,-0.34412292,-0.06834493,0.15431595,-0.34997186,0.16041286,-0.11636959,0.23546852,0.3638045,-0.35217622,-0.6395863,0.30185682,0.14015235,0.35545012,0.39483866,-0.09648472,-0.31730288,-0.077835575,-0.16857634,0.05101027,-0.3757248,0.04026341,-0.19112468,0.2582375,-0.43237877,0.536653,0.5516086,-0.05365559,-0.45343176,0.2873874,0.3681062
model,0.7774694,-0.020297114,-0.018088156,0.17933416,0.34796587,-0.34456098,0.79759854,-0.037131336,0.08260299,0.35750112,-0.011485606,0.34877354,-0.44366187,0.6609471,0.73038566,0.15891285,0.4239822,-0.058480278,-0.12953757,-0.19067171,0.08134698,0.22905277,0.036710586,-0.23913608,0.46929836,-0.7033073,0.32393762,0.39160156,-0.90354604,-0.2856088,0.33712116,0.29154584,0.02392339,0.59787285,-0.1063056,-0.099371,-0.01848526,0.1876453,-0.23364869,0.16640878,-0.11336745,-0.28940132,0.15774363,-0.60163134,0.52856904,0.2822504,0.19257341,-0.12514633,0.22674659,0.35352662
dapat,0.9163027,-0.047557954,-0.09901103,0.10182226,0.37728947,-0.4518949,0.8117354,0.004561965,0.031059721,0.33567706,-0.0008076191,0.4616107,-0.5378221,0.7736346,0.75039965,0.3228114,0.46877447,-0.07717119,-0.1313549,-0.14143436,0.1403966,0.38256583,0.06167601,-0.21151027,0.5509668,-0.81106967,0.38548666,0.40064672,-1.0271579,-0.19876508,0.31787625,0.36465317,0.0216288,0.7024979,-0.20371754,0.058793545,-0.17407392,0.3418258,-0.4514043,0.3225664,-0.15874654,-0.22082186,0.105788305,-0.5279981,0.49701145,0.15608957,0.2601834,-0.21326284,0.14913943,0.4323865
bantu,0.6304766,-0.15361294,-0.03342902,-0.015406539,-0.16089319,-0.3556452,0.68184155,0.44948065,0.12282407,0.5992011,-0.24678095,0.26526314,-0.22970429,0.43163875,0.23047362,-0.03770903,0.40291277,-0.07390662,-0.2902128,0.028860752,-0.34972188,0.08159633,0.07866831,-0.30950356,0.43848974,-0.2545615,0.16714992,0.29050535,-0.57146335,-0.6712196,0.13295762,0.10198675,0.45907742,0.5099799,-0.23771578,-0.39857632,-0.07841446,0.11333104,-0.26322487,-0.0600331,-0.035889566,0.00767077,0.052971367,-0.32609674,0.5362312,0.49752337,0.097716615,-0.2537834,0.070348136,0.26562786
sehat,0.63402915,-0.12082462,-0.09145915,-0.12675677,-0.22761968,-0.41334137,0.79451275,0.58781606,0.21041884,0.6563509,-0.32472026,0.14663576,-0.13990618,0.2743012,0.030393561,-0.19132277,0.35601184,-0.17980735,-0.46360245,0.039729517,-0.57613224,-0.13405523,0.19488741,-0.24394675,0.48165455,-0.20329078,0.09773288,0.23773463,-0.5403012,-0.8021671,0.13963284,0.016742874,0.6029846,0.44127044,-0.35791245,-0.56460863,-0.20301574,0.059344195,-0.27076274,-0.21942145,-0.03962775,0.12270819,0.18417254,-0.33380672,0.4083036,0.73157984,0.1379014,-0.37681267,0.059484746,0.29565844
teknik,0.8255299,-0.123044364,0.025783656,0.19820192,0.30021152,-0.19014609,0.8192307,0.010013254,0.024745408,0.3047441,-0.048998486,0.33420235,-0.47728583,0.5405921,0.8504875,0.10746492,0.385655,0.046020083,-0.20965889,-0.10373255,0.13842873,0.22479886,0.1550856,-0.42300636,0.34562278,-0.56689847,0.35655048,0.49811244,-0.79748124,-0.31721812,0.4137889,0.30228543,0.08953914,0.5956946,-0.11470541,-0.04337197,-0.1065515,-0.039609157,-0.06649438,0.0130706895,0.03618612,-0.4129158,0.2513182,-0.69585246,0.6024013,0.31015193,0.086802624,-0.31686407,0.37525073,0.40889314
pakar,0.57100713,-0.21817186,-0.005795884,0.14541472,-0.3426375,-0.45272487,0.8745605,0.62334645,0.07976924,1.071991,-0.28975025,0.21881558,-0.19947366,0.37373906,0.04768307,-0.49687198,0.38474503,-0.011808341,-0.5695832,-0.10803698,-0.9109561,-0.097486764,0.103308775,-0.39853767,0.37027013,0.022208322,0.023565713,0.35841656,-0.36404598,-1.0042156,0.19753648,0.05293044,0.38222763,0.4298732,-0.16814904,-0.65653396,-0.021618832,0.013519913,-0.1207524,-0.26963022,0.016958188,-0.020364957,0.27605265,-0.4258497,0.49283296,0.7314662,0.21587437,-0.03195693,-0.055140335,0.55677354
tanam,0.53367764,-0.19833374,0.02827162,0.055231456,-0.26225263,-0.45672905,0.8221062,0.5795831,0.15520975,0.8913832,-0.32990077,0.21786164,-0.16524664,0.34233564,0.09258016,-0.41847542,0.26182136,-0.07455948,-0.6698218,-0.03614692,-0.78969896,-0.09418973,0.1570578,-0.33849335,0.364164,0.0118864095,0.03343519,0.35927433,-0.29165474,-0.983632,0.26338595,0.030688355,0.4245323,0.42397553,-0.20513272,-0.61758935,-0.08991214,-0.037826084,-0.06690092,-0.2892083,0.104010515,-0.05303521,0.36234674,-0.4284381,0.42052734,0.780331,0.15571317,-0.060816195,0.015888484,0.465943
nave,1.1833117,-0.115587026,0.07764277,0.35724008,0.6290853,-0.27666312,1.1874248,-0.06178105,0.020408608,0.09988593,-0.005434227,0.48888108,-0.53536284,0.43334544,1.2526749,0.16845936,0.30830845,-0.2533054,-0.22192988,-0.19477366,0.36075938,0.28744996,0.27702966,-0.37733746,0.18542033,-0.7462486,0.69106364,0.65665305,-0.86508316,-0.49176884,0.8200349,0.3421853,0.35228893,0.8678547,-0.16337393,0.2091652,-0.42672873,0.015239284,-0.015421606,-0.3476095,-0.06293159,-0.79122645,0.3639549,-0.9377972,0.9740845,0.6340031,-0.20410556,-0.897749,0.75625455,0.5669767
informasi,0.6220701,-0.20417795,-0.01388714,0.02501482,-0.16862601,-0.22909719,0.8658099,0.36619768,0.15370862,0.6454093,-0.21646217,0.12236509,-0.27134636,0.3795687,0.3166819,-0.21866325,0.3793365,0.0018604032,-0.30054417,-0.015742933,-0.4304517,-0.0844987,0.16541353,-0.39458328,0.42531705,-0.22294322,0.114804685,0.32838827,-0.6310679,-0.63405395,0.17187466,0.18039034,0.3247965,0.42970097,-0.15890084,-0.48387027,-0.01044241,-0.06679246,-0.09666001,-0.180629,0.0341063,-0.034722365,0.28654483,-0.5030466,0.39650986,0.5300706,0.22062816,-0.21189547,0.1597429,0.33903325
baik,0.90271646,-0.108242534,-0.11078205,0.16595258,0.26377535,-0.46656045,0.75160027,0.15710424,0.0672419,0.3904379,0.031210184,0.44439018,-0.36578277,0.59129566,0.53040785,0.291175,0.38227025,-0.24288017,-0.0050768256,-0.16086522,0.025092212,0.2808715,-0.027487041,-0.041659433,0.48320597,-0.68725276,0.35888362,0.26343584,-0.95802504,-0.32286766,0.32765666,0.35010692,0.20354466,0.63560724,-0.23790763,-0.010695457,-0.2519889,0.47194335,-0.56412894,0.1936101,-0.36026827,-0.074240275,-0.0146765,-0.23579034,0.3980503,0.16286696,0.12535381,-0.37669685,0.13786039,0.3428048
hasil,0.91280323,-0.08200475,-0.15967198,0.12867332,0.24798416,-0.46614558,0.72620314,0.14799862,0.06706717,0.3503513,0.01959474,0.40417615,-0.35489035,0.5081544,0.48296288,0.24771832,0.40138677,-0.20932774,-0.0664346,-0.122111455,0.035127606,0.2578073,-0.0008384074,-0.09297967,0.45549926,-0.6401424,0.36519712,0.22825867,-0.8718754,-0.29304028,0.28769752,0.25925246,0.20014425,0.60776675,-0.2893856,0.014321355,-0.29614475,0.40144765,-0.49409696,0.18772629,-0.31151024,-0.120681874,0.020945746,-0.25045788,0.40295574,0.24381204,0.11029511,-0.41683778,0.13593969,0.38212162
pilih,0.65049624,-0.16694255,-0.01670721,0.065621115,-0.18324582,-0.3081889,0.774388,0.45636007,0.15651159,0.6866564,-0.23399442,0.17791061,-0.20602892,0.37764585,0.21015319,-0.1097727,0.3531304,-0.11392978,-0.22725548,0.017396007,-0.41096008,0.021591794,0.08462704,-0.27437353,0.4433993,-0.25703904,0.11544328,0.282516,-0.6504184,-0.6914385,0.17536421,0.19274493,0.4025679,0.4951699,-0.17325865,-0.4467111,0.012997521,0.13110366,-0.21133627,-0.10005151,-0.087299585,0.062093426,0.13063504,-0.3571993,0.4192572,0.4486931,0.15889768,-0.24083406,0.10980891,0.22454056
c,0.40442517,0.11982298,0.07318477,-0.2434442,0.12300873,-0.31563252,0.1630879,0.11859648,0.13597989,0.20885119,-0.16573884,0.37515542,-0.23671128,0.38690084,0.2750534,0.16378239,0.23775405,0.33136606,-0.485913,0.23006773,0.06989807,0.36002073,0.1530822,-0.32535937,0.27007487,-0.28302512,0.21929999,0.2909181,-0.27339286,-0.27684933,-0.036286116,-0.09804687,0.15273167,0.40905148,-0.21413381,-0.058290288,-0.15601018,-0.10569812,-0.040150464,0.20277753,0.22501422,-0.21779202,0.12671925,-0.40265265,0.593509,0.24751216,-0.09265879,0.007937109,-0.10670047,0.107360795
kerja,0.6540059,-0.06621403,-0.03969556,0.06972822,0.06126552,-0.34777802,0.73090833,0.24598518,0.1627849,0.4438785,-0.12185672,0.22713038,-0.2660914,0.39956826,0.36089054,0.019873926,0.34147093,-0.16054322,-0.20443135,-0.07398843,-0.18121295,0.03515978,0.054932717,-0.1656015,0.40743464,-0.39907768,0.1759244,0.2622058,-0.6448968,-0.48542002,0.23074809,0.16700251,0.31105536,0.48873666,-0.20733282,-0.25029892,-0.12025012,0.15500759,-0.25327364,-0.002032613,-0.10649834,-0.055280887,0.1342633,-0.35885936,0.39893702,0.40123135,0.085796505,-0.25284532,0.13496074,0.30968323
layak,0.7032525,-0.11297278,-0.040772118,-0.06040911,-0.12949488,-0.43491232,0.7264098,0.5208612,0.15134618,0.6884946,-0.29012927,0.2475674,-0.19312286,0.42000374,0.15993173,-0.12502795,0.30152127,-0.08502233,-0.37210318,0.07938802,-0.45570734,0.016204001,0.18833314,-0.24658999,0.4338125,-0.2504532,0.11477343,0.33918622,-0.6309631,-0.69520366,0.19382809,0.10838764,0.41775626,0.5462622,-0.25802347,-0.46241105,-0.19245216,0.11091549,-0.2959725,-0.13291322,-0.058399875,0.090251766,0.17888506,-0.31405693,0.4322768,0.55883175,0.18958674,-0.30386558,0.040689334,0.26161042
jual,0.48300794,-0.170552,0.12729919,0.272051,0.033490643,-0.3679659,1.114125,0.25316226,0.42816165,0.68867743,-0.24145646,-0.031308677,-0.15426233,0.2601287,0.40283862,-0.2583396,0.21291074,-0.27780434,-0.18162571,-0.1116226,-0.59497,-0.1000322,0.03463671,-0.003008718,0.34283125,-0.11741051,-0.022247845,0.3208799,-0.43276864,-0.80735606,0.23142563,0.1679616,0.53685373,0.58026683,0.024511088,-0.59808326,0.15575765,0.20045128,-0.0904833,-0.2039205,-0.072628945,0.043519437,0.21210025,-0.48828307,0.34566453,0.4790595,-0.13569456,-0.09409892,0.24140301,0.28857827
implementasi,0.7037688,-0.102599114,0.007335754,0.07551677,0.25334793,-0.24330045,0.8235555,0.011723723,0.08357667,0.2756718,-0.07889155,0.27486032,-0.42685717,0.57588863,0.6943138,0.078448206,0.40504417,-0.03787381,-0.17512965,-0.093647644,0.09175777,0.17660426,0.12136337,-0.3541888,0.4061314,-0.59553224,0.3327032,0.39379138,-0.7344153,-0.30495256,0.2642495,0.27796826,0.13984013,0.5503423,-0.17757079,-0.08087998,-0.050225534,0.041573558,-0.12929174,0.12526377,0.018819857,-0.3098469,0.17265289,-0.6420502,0.5477242,0.36180088,0.1761724,-0.20782089,0.27916428,0.41966736
fuzzy,0.7705549,0.17140788,-0.053114995,-0.030073468,0.293568,-0.49995008,0.7366444,0.02792207,0.17436282,0.17254053,-0.11676261,0.322637,-0.26169026,0.5849744,0.4285038,0.267485,0.54678786,-0.2632445,-0.19436827,-0.055051934,0.06885464,0.19305073,-0.04044582,-0.10859917,0.62911934,-0.8869413,0.3245621,0.19366166,-0.8238468,-0.36389333,0.087433144,0.09244504,0.43142593,0.5440807,-0.3696022,-0.06992898,-0.12753321,0.3391783,-0.42110074,0.28277862,-0.14258316,-0.1450891,-0.03734767,-0.43488303,0.6262298,0.5253669,-0.04730691,-0.37753567,0.14175294,0.31450176
naive,1.062744,-0.12489937,0.096866764,0.25049573,0.5440493,-0.19833176,1.085934,-0.012208249,-0.019212734,0.04663544,-0.06619092,0.44807243,-0.4962363,0.3821185,1.1716285,0.09482769,0.28481036,-0.20497799,-0.30896747,-0.120857306,0.3470149,0.25725102,0.34420553,-0.48368838,0.12791277,-0.6634591,0.69996583,0.6522033,-0.72748053,-0.49228927,0.747941,0.27688572,0.36672962,0.7803212,-0.20571977,0.20373441,-0.42173252,-0.14582643,0.09492491,-0.3951531,0.053079955,-0.843083,0.37247086,-0.9497031,0.99898183,0.7213045,-0.1908442,-0.897793,0.7361802,0.5514532
sebab,0.6307608,-0.10256806,-0.024020273,-0.10688166,-0.10260999,-0.46323,0.7463076,0.4789821,0.26567322,0.67642695,-0.31892475,0.18236457,-0.17933112,0.31296432,0.121201426,-0.21684167,0.28251654,-0.09822892,-0.5657054,0.08470961,-0.5328734,-0.06480523,0.24492572,-0.29594177,0.40282318,-0.13740985,0.11933874,0.34502095,-0.4325041,-0.79541314,0.15562834,0.0057259435,0.48207915,0.45883816,-0.33054194,-0.54933167,-0.2160643,0.0027935007,-0.17650607,-0.18664308,0.06938013,0.037768103,0.28507513,-0.40566328,0.47598192,0.71976024,0.07615475,-0.21011396,0.02483466,0.34085602
ukur,0.8293707,-0.09070031,-0.059427645,0.17987306,0.28485683,-0.3662919,0.7762276,0.053322542,0.0344082,0.32612216,0.0046999236,0.34986702,-0.40303734,0.59168965,0.6510346,0.18809094,0.39630708,-0.12907515,-0.07461581,-0.15800796,0.07422598,0.24978346,0.020196034,-0.17773664,0.41025266,-0.6307339,0.31644323,0.3502734,-0.8404836,-0.25813052,0.3441411,0.30012462,0.103668146,0.6195574,-0.15629472,0.0034909465,-0.16049474,0.27994382,-0.35271567,0.13406532,-0.18597938,-0.22628646,0.1160337,-0.45451736,0.4819883,0.23345608,0.12222934,-0.30303374,0.19936085,0.3943338
media,0.5962468,-0.09428701,-0.13297613,-0.0357337,-0.14912929,-0.33598945,0.96696,0.4022002,0.29744712,0.6921603,-0.31829926,0.050637342,-0.13643274,0.17480022,0.19844769,-0.28321,0.26030034,-0.14644791,-0.43411642,0.012184933,-0.5808872,-0.17048983,0.2570826,-0.27540523,0.41183582,-0.10538643,0.10493239,0.27281907,-0.52906245,-0.80333203,0.0674149,0.118078515,0.4486176,0.4206324,-0.21298823,-0.65942574,-0.04403361,-0.12633173,-0.046858236,-0.39511135,0.0076342025,-0.008362895,0.31180495,-0.44933593,0.42602342,0.7109855,0.16445376,-0.33003587,0.18868087,0.29282075
kabupaten,0.8495655,0.026198337,-0.22371149,-0.12982458,-0.14163592,-0.7418516,0.779661,0.6785393,0.38063604,0.7039981,-0.29509073,0.27662435,-0.13043366,0.343251,-0.116741456,0.0800547,0.460348,-0.4778219,-0.28019485,0.056477774,-0.6175995,-0.02693892,-0.039373603,0.081170574,0.7191787,-0.44211558,0.12639096,0.014172796,-0.7469601,-0.8671195,0.05751578,0.06089176,0.80758405,0.5740554,-0.58286554,-0.52593666,-0.31221926,0.52338374,-0.75028014,0.10798573,-0.38390827,0.37536693,-0.1548387,-0.035226595,0.37076852,0.66944695,0.012084404,-0.47404802,-0.039367836,0.31727108
fold,1.426464,-0.042204436,-0.118592456,0.28136012,0.6500801,-0.64623904,1.1645031,-0.14131175,0.09345949,0.66991574,0.16803838,0.69976413,-0.94030184,1.2041433,1.2354163,0.4481673,0.62412745,-0.08127671,-0.018894238,-0.37866315,0.30197045,0.5582568,0.059022162,-0.23548335,0.84768176,-1.2782305,0.59271646,0.61000955,-1.7677807,-0.29445988,0.5986046,0.6486091,-0.24462353,1.10332,-0.23144646,-0.02472079,-0.18239665,0.51349723,-0.6720227,0.6342879,-0.40838325,-0.32219812,0.14760748,-0.7714967,0.6696312,0.076260835,0.51871926,-0.078392036,0.2323547,0.6309025
multinomial,1.125972,-0.1261039,0.02142455,0.3800807,0.55840665,-0.28831667,1.1776584,-0.019933647,0.016459513,0.1516859,-0.0053433958,0.4160278,-0.49114043,0.4421102,1.2115172,0.16487586,0.30383283,-0.23714298,-0.18100087,-0.1812206,0.2807499,0.30290198,0.22346698,-0.38439423,0.17225139,-0.6351047,0.6251543,0.64142185,-0.86495817,-0.49374506,0.6417059,0.3897898,0.3344523,0.86208254,-0.113103814,0.1263274,-0.38480282,-0.025260478,-0.073665805,-0.34403005,-0.043089066,-0.6882819,0.38978353,-0.85106826,0.89999664,0.5363346,-0.18801148,-0.8588167,0.6447251,0.582996
layan,0.63860136,-0.109718844,-0.032962896,-0.057582047,-0.17893784,-0.33450696,0.766114,0.5471289,0.20145927,0.63666,-0.2894788,0.13949463,-0.13957195,0.28100857,0.14795884,-0.19840722,0.27360573,-0.14226808,-0.3945256,0.04697273,-0.50747055,-0.113565184,0.21030933,-0.23900495,0.3898122,-0.16012506,0.08743713,0.29901055,-0.5219025,-0.7367524,0.20328961,0.06610633,0.473214,0.4733458,-0.2383693,-0.5140374,-0.16476102,0.0016914983,-0.1798825,-0.26340526,-0.00872536,0.06190771,0.24959292,-0.34912357,0.39381427,0.640276,0.11228966,-0.3713116,0.12018726,0.25873792
ambil,0.66219884,-0.24459216,0.034005165,0.20825417,-0.14852397,-0.19569951,0.9484943,0.38060224,0.11792125,0.6641308,-0.23349886,0.101051286,-0.26601964,0.44650516,0.40730625,-0.20201167,0.3576364,-0.12750484,-0.14673011,-0.062208906,-0.3871663,0.010669058,0.090945885,-0.3518291,0.3604232,-0.2219415,0.15519817,0.350121,-0.610019,-0.73596215,0.20105433,0.25947478,0.3699127,0.5031523,-0.01562721,-0.42424038,0.16002217,0.06992131,-0.016553104,-0.18152067,-0.010580866,-0.052643333,0.16748124,-0.5723058,0.46412563,0.4224987,0.1536335,-0.19204174,0.21067105,0.28632337
teknologi,0.6334693,-0.13679038,0.006328652,0.031117124,-0.18403618,-0.25808325,0.9041397,0.42883393,0.24835633,0.7243134,-0.28859234,0.090735234,-0.23501526,0.3496891,0.31695157,-0.27724108,0.41080412,-0.0034087463,-0.38600138,-0.021912994,-0.519453,-0.14626983,0.16667576,-0.38062087,0.45484954,-0.18796106,0.071499,0.33533326,-0.5752811,-0.7716096,0.18667117,0.11098871,0.39064908,0.44804093,-0.14943643,-0.6207143,0.020095121,-0.09805621,-0.042688094,-0.21209657,0.06064779,-0.020028695,0.30316976,-0.5410104,0.4377084,0.65415037,0.15287684,-0.19610922,0.19767936,0.33261207
ratarata,0.91355187,-0.08217214,-0.10781547,0.26776415,0.43207318,-0.5184552,0.9041089,-0.00431418,0.08677663,0.4527523,0.05203621,0.43303624,-0.50189805,0.7557116,0.73568463,0.2883001,0.3750753,-0.20452902,0.018038277,-0.19460653,0.011227886,0.31332538,-0.014313279,-0.033753496,0.4857199,-0.76333386,0.2808796,0.38200626,-1.0793363,-0.23661949,0.4075409,0.43027845,0.017819714,0.73545545,-0.11029981,0.0030633698,-0.15942077,0.52615446,-0.5660382,0.27991116,-0.3278156,-0.11017356,0.12804782,-0.40016493,0.34239694,0.035238914,0.2707227,-0.14634405,0.14856367,0.42070785
mudah,0.64685506,-0.16227204,-0.037450578,0.049304318,-0.19541927,-0.37225893,0.84709704,0.4924717,0.1840113,0.7023579,-0.2576724,0.16971458,-0.19550212,0.3326092,0.17555684,-0.17576872,0.34019217,-0.14437263,-0.31762967,0.005108431,-0.5272754,-0.045325033,0.104289986,-0.22659627,0.42404395,-0.18501526,0.09437963,0.2699982,-0.55644244,-0.76708144,0.15457012,0.116655685,0.47222036,0.4944618,-0.19355306,-0.5030774,-0.08077523,0.11791824,-0.21988995,-0.17276649,-0.05694504,0.05683582,0.17977673,-0.3652102,0.3998329,0.5738987,0.08753113,-0.2597545,0.06103631,0.29483512
didik,0.6396992,-0.1132045,-0.036584377,0.020051593,-0.14088815,-0.38902754,0.75498664,0.4466895,0.23242706,0.66906244,-0.22610678,0.1889279,-0.18859552,0.34917164,0.19198067,-0.1205483,0.34560293,-0.10639765,-0.31743267,-0.003154091,-0.45392764,-0.041294083,0.119160645,-0.23556413,0.4536274,-0.23609668,0.06805069,0.2624411,-0.59482986,-0.6834131,0.16478059,0.13943586,0.39373934,0.48790893,-0.20014048,-0.49907464,-0.10226717,0.13325688,-0.24889141,-0.113903165,-0.08048541,0.06681767,0.15233555,-0.31299257,0.38392726,0.49677375,0.15033133,-0.2183231,0.061884895,0.26482514
bangun,0.7059741,-0.109773576,-0.055226866,0.03426773,-0.045337044,-0.3885259,0.74450797,0.37476328,0.10952554,0.5371332,-0.16594927,0.24933903,-0.22300883,0.39020136,0.304379,-0.05757364,0.38077956,-0.11289076,-0.30974093,-0.027705707,-0.2981448,0.017755594,0.09457396,-0.25191587,0.40502205,-0.30919594,0.20825969,0.28616416,-0.60689914,-0.5820263,0.21602653,0.12518513,0.38414392,0.4942379,-0.253675,-0.32950738,-0.16526718,0.11512921,-0.2684811,-0.11292382,-0.06749242,-0.05088384,0.17906989,-0.35541317,0.4828425,0.50801665,0.100428596,-0.33255634,0.11819867,0.3466089
cari,0.66400725,-0.019978484,-0.06921662,0.04858748,0.13663705,-0.36857107,0.7645256,0.17646338,0.19227237,0.37907675,-0.122389786,0.2224928,-0.27575395,0.42647263,0.41423556,0.1132159,0.38325274,-0.20100789,-0.13955697,-0.09657847,-0.11217881,0.09442131,0.013933629,-0.117857106,0.45546392,-0.48431093,0.22078897,0.23604459,-0.68640476,-0.44472998,0.19654721,0.1733981,0.29966363,0.5457203,-0.2145102,-0.20444642,-0.0809432,0.22101448,-0.31292298,0.12865837,-0.17424071,-0.048992004,0.0456772,-0.37590006,0.40951955,0.38063985,0.08289039,-0.27748364,0.18989524,0.32828942
skenario,1.2347863,0.0018719176,-0.20321625,0.16940643,0.4990788,-0.6688756,0.91121316,0.0042556054,0.14669909,0.5501919,0.15600921,0.61076045,-0.68971837,0.89360857,0.8367461,0.45781595,0.5777735,-0.21364534,0.02839221,-0.33739972,0.22768402,0.44454455,-0.034938306,-0.084236704,0.77972335,-1.1280584,0.5389517,0.35187963,-1.50308,-0.29584718,0.42599005,0.4797192,-0.040589903,0.89746547,-0.33157822,-0.03085947,-0.30054373,0.57849604,-0.7472426,0.6140296,-0.50627095,-0.15251943,-0.016226051,-0.43917575,0.48794952,0.14307098,0.37228733,-0.20602094,0.14731602,0.51532316
masalah,0.60959417,-0.1379081,-0.062717766,-0.03499912,-0.23050071,-0.41881734,0.8408845,0.5207352,0.2804107,0.73860043,-0.33168533,0.11794529,-0.16704889,0.29968482,0.124741204,-0.22584575,0.35355857,-0.13541716,-0.40186203,0.04354824,-0.61279446,-0.14957169,0.15804575,-0.25014737,0.44319865,-0.13408639,0.028750677,0.27429515,-0.52621263,-0.8472156,0.11098398,0.083840914,0.5494313,0.47716424,-0.25878283,-0.6471391,-0.10327754,0.03999196,-0.20734046,-0.19331318,0.003878202,0.12621552,0.20240062,-0.36330682,0.41380647,0.6709813,0.15109973,-0.23107778,0.073690556,0.29395828
kualitas,0.6549422,-0.09615487,-0.045329925,0.010368116,-0.10678335,-0.38939816,0.7845486,0.40910736,0.20652162,0.6631191,-0.20509721,0.16098966,-0.20646237,0.35321555,0.21680415,-0.12382435,0.32323518,-0.14778511,-0.3126574,-0.034645144,-0.44583458,-0.06180761,0.106927365,-0.18292388,0.46069208,-0.2999704,0.08486034,0.2456623,-0.6314859,-0.66928065,0.21297385,0.13247216,0.36043608,0.4893582,-0.2093118,-0.47349298,-0.07444984,0.12155461,-0.24342172,-0.08860245,-0.102088325,0.048922937,0.20142902,-0.35649794,0.35432065,0.5382176,0.14314815,-0.2303204,0.09639723,0.30958962
mana,0.6576291,-0.14803277,-0.017141843,0.06986738,-0.03474444,-0.29398096,0.8204591,0.30948856,0.20156334,0.586368,-0.19651574,0.15415835,-0.2441452,0.3844633,0.37029582,-0.15833382,0.30917007,-0.012442649,-0.32653934,-0.024495171,-0.3547824,-0.049851302,0.18330446,-0.30981463,0.3786728,-0.24425606,0.13551143,0.33739817,-0.5813252,-0.54732585,0.21729003,0.2066368,0.26524785,0.48510373,-0.1568709,-0.40973857,-0.053979922,0.011030219,-0.11554254,-0.1027006,0.04989722,-0.03140109,0.30933288,-0.4759284,0.3674058,0.48325726,0.19418994,-0.19359909,0.14133574,0.34722272
harga,0.6064203,-0.13638766,0.05564957,0.13210075,0.057392545,-0.38111,1.006954,0.33951443,0.2840082,0.6320409,-0.25382298,0.1139705,-0.15985444,0.2693037,0.33523226,-0.18969962,0.16987522,-0.24460082,-0.34713066,-0.034759082,-0.47009966,-0.060249925,0.14825347,-0.10581855,0.32665634,-0.18273303,0.12603745,0.3611046,-0.49645856,-0.73978645,0.30295053,0.14183071,0.5657677,0.57923156,-0.14113814,-0.51303715,-0.1011649,0.1782949,-0.12319924,-0.31101665,-0.069522455,-0.049555186,0.26932684,-0.37240228,0.37647778,0.62096566,-0.06646596,-0.32015094,0.24085127,0.28988886
terima,0.68643564,-0.115949295,-0.03611357,-0.004972866,-0.04652545,-0.31663284,0.73968565,0.31518635,0.10335431,0.5151057,-0.1998384,0.28129688,-0.29909462,0.498952,0.37108532,0.029793307,0.4289511,-0.042422805,-0.2337061,-0.006020695,-0.19514094,0.1297829,0.08100248,-0.3418732,0.4856727,-0.42925233,0.2105883,0.2939457,-0.71027404,-0.5360942,0.14484738,0.1884336,0.32766038,0.51582175,-0.22641456,-0.30398503,-0.03738663,0.108749,-0.2581785,0.06155345,-0.05680739,-0.06769318,0.07139785,-0.4314091,0.507614,0.42657486,0.1740266,-0.24271642,0.122155115,0.288031
positif,0.850456,-0.23066314,-0.06685835,0.07804622,0.19678533,-0.18612383,1.1141251,0.10149609,0.14845678,0.38441107,-0.12575789,0.1326866,-0.38740215,0.48292905,0.62325555,-0.12696874,0.25502864,-0.03476559,-0.27737617,-0.05530541,-0.043438647,-0.015854025,0.4170939,-0.5028545,0.35803434,-0.47200468,0.39886096,0.4872662,-0.80055296,-0.3716259,0.28113103,0.41662607,0.13157302,0.52098995,-0.24682865,-0.2411977,-0.15451896,-0.12835748,0.011970049,-0.09343564,0.150267,-0.302449,0.48674613,-0.73951083,0.44006196,0.51499254,0.4436584,-0.36210665,0.3606052,0.49774382
sesuai,0.6781145,-0.16904072,-0.032211293,0.061103024,-0.08622083,-0.3549383,0.79816127,0.37285233,0.13768575,0.64029485,-0.19516973,0.19290814,-0.24100843,0.3914566,0.27639088,-0.12656796,0.32863358,-0.09142613,-0.31597316,-0.019929467,-0.37465578,0.003969407,0.14634477,-0.27431676,0.41045383,-0.28614193,0.14112484,0.320981,-0.6433748,-0.60234374,0.22088282,0.17040841,0.33578506,0.5153306,-0.18752667,-0.41206107,-0.0700166,0.10558409,-0.20909382,-0.11959001,-0.04986021,-0.0034780495,0.20898747,-0.39036557,0.41428187,0.47477922,0.17184637,-0.23533447,0.099231064,0.30748248
covid,0.65819854,-0.04339053,-0.056061186,-0.022278624,0.0052984203,-0.47476566,0.7451864,0.37663513,0.28905123,0.5837527,-0.22843608,0.19839637,-0.17670597,0.2940965,0.19068162,-0.101248406,0.26977673,-0.1644197,-0.38578662,0.015909784,-0.37582076,-0.020378651,0.11015871,-0.15410852,0.4004745,-0.2581598,0.14994137,0.25628564,-0.53649557,-0.6553982,0.1606967,0.07048022,0.469006,0.47776175,-0.2741028,-0.40384728,-0.2366666,0.1629797,-0.27785546,-0.08569987,-0.08383002,0.0375554,0.2137709,-0.29796967,0.40910175,0.57862395,-0.009736921,-0.30357847,0.06614124,0.32099932
sosial,0.62556714,-0.14275952,-0.009322303,0.11569201,0.018646318,-0.35738534,1.1453292,0.26810527,0.4089636,0.5434105,-0.29928735,-0.0068487464,-0.15545565,0.02989382,0.44801983,-0.29883862,0.17412014,-0.24329905,-0.3810187,-0.0070455135,-0.515185,-0.1838617,0.2562762,-0.21531567,0.27530786,-0.07754996,0.1424701,0.29790914,-0.47209534,-0.83989954,0.19307636,0.22607253,0.5685353,0.5335068,-0.14526759,-0.57643557,-0.12018094,-0.107638046,0.013517606,-0.4784284,0.020860773,-0.15122253,0.39951587,-0.5870932,0.5017546,0.73655593,-0.055562664,-0.51820064,0.40202495,0.3156783
manfaat,0.61631167,-0.16531987,-0.022328403,-0.0008313248,-0.18426101,-0.26967388,0.88036406,0.41856682,0.24472623,0.6704719,-0.27286887,0.08514974,-0.22165336,0.3372736,0.28443006,-0.2443935,0.36545736,-0.036045622,-0.3617274,-0.021928696,-0.5004562,-0.1504767,0.17796794,-0.34882736,0.43474177,-0.1924952,0.09700682,0.3073974,-0.568376,-0.71738344,0.16548307,0.13442709,0.37481788,0.45654517,-0.17384626,-0.57672477,-0.012795166,-0.07376428,-0.060362842,-0.18942302,0.055474006,0.0058115227,0.29602817,-0.4939809,0.40652815,0.6123732,0.18342838,-0.21699168,0.16749987,0.32550737
fitur,0.8308206,-0.11168337,0.020598583,0.1657893,0.31092104,-0.23186137,0.85078496,-0.0002694686,0.029162621,0.19044094,-0.04880695,0.3326816,-0.4609102,0.58994025,0.82693833,0.11764618,0.34313112,-0.087301716,-0.19159931,-0.122722134,0.22141726,0.22998358,0.14609618,-0.36837834,0.3272676,-0.58005065,0.4183513,0.4842601,-0.7308846,-0.32596606,0.4252365,0.28033906,0.15980692,0.64048856,-0.14002797,0.030623246,-0.17017381,0.021820387,-0.12811624,-0.049507063,-0.027781466,-0.42877337,0.20349413,-0.69859886,0.6797591,0.41440722,0.030941904,-0.41309574,0.40253922,0.41735348
anggota,1.1127523,0.023340505,-0.34967348,-0.083760194,0.06612455,-0.85370696,0.82289106,0.5030056,0.31638965,0.6140435,-0.074435465,0.39969787,-0.21528366,0.47036934,0.006712973,0.29137498,0.54601556,-0.5025909,-0.15297589,-0.10998616,-0.3068378,0.12837353,-0.12801707,0.12972799,0.7686697,-0.7270225,0.34335423,-0.02491719,-0.99999774,-0.5398443,0.1344901,0.13888769,0.59132516,0.6828429,-0.64718497,-0.25036538,-0.56036603,0.7660993,-0.98715734,0.3476393,-0.6003056,0.27878976,-0.17531963,0.12276148,0.33200654,0.52334523,0.065338895,-0.6042369,-0.054987006,0.44387856
rendah,0.83946097,-0.036195453,-0.17428806,0.032176316,0.07475211,-0.60711706,0.75958765,0.33782402,0.21750762,0.5683851,-0.10019376,0.3417,-0.24173726,0.4826796,0.18087228,0.15514441,0.43163797,-0.3022358,-0.18116353,-0.07756608,-0.2585011,0.124897264,-0.051371336,-0.016804783,0.5766037,-0.54784125,0.20083383,0.1525925,-0.8140684,-0.510421,0.17762648,0.16905536,0.36726403,0.5808177,-0.32914773,-0.22961059,-0.27095202,0.49914575,-0.61660075,0.18923518,-0.357761,0.11024655,-0.012208223,-0.14073063,0.34722194,0.38473344,0.10520093,-0.32782272,-0.0019554386,0.35742062
ganggu,0.69866186,-0.13363364,-0.02627814,-0.015297833,0.039576724,-0.3488632,0.87138003,0.29515922,0.16162802,0.51272523,-0.21775316,0.20684771,-0.29324248,0.46668887,0.3993653,-0.11094088,0.34128633,-0.0075255097,-0.4036583,-0.005652327,-0.25388873,0.061521128,0.27692366,-0.371931,0.4149914,-0.31512585,0.2645294,0.3821089,-0.5904745,-0.5247663,0.21786366,0.17364341,0.2712462,0.51092565,-0.2893491,-0.35540536,-0.19461069,-0.049138185,-0.12381739,-0.097544335,0.10021847,-0.13336071,0.3366619,-0.55849904,0.4825653,0.61315006,0.22447789,-0.23056056,0.12440925,0.4404187
dukung,0.5494841,-0.1769989,0.03591078,0.2043609,-0.19370724,-0.28625542,0.93151516,0.42051724,0.23877312,0.77318615,-0.24701115,0.07566786,-0.16591257,0.3529749,0.24130149,-0.25605825,0.3635498,-0.1366498,-0.21427858,-0.0796383,-0.54940563,-0.08151668,0.026462605,-0.23792645,0.37601498,-0.101654015,0.014726995,0.3070276,-0.4907219,-0.823963,0.1675099,0.15032217,0.45372733,0.49149895,-0.037688028,-0.56563705,0.17722997,0.1039175,-0.05752368,-0.17883031,-0.028047841,0.07936852,0.1805023,-0.46588793,0.4345753,0.4950714,0.085150756,-0.099748395,0.13088787,0.2984738
komentar,0.7873679,-0.257831,-0.028394572,0.081044,0.08013916,-0.16236307,1.1254725,0.19753303,0.206167,0.4654888,-0.22513387,0.025185643,-0.2730624,0.2703537,0.5634507,-0.28084874,0.20867799,-0.073017135,-0.34094182,-0.03359861,-0.23352699,-0.11932453,0.40397868,-0.48661372,0.26737398,-0.27015302,0.31044614,0.46168885,-0.6158867,-0.5541387,0.27780244,0.33276036,0.3283249,0.50782084,-0.20358793,-0.3685309,-0.13534558,-0.19173734,0.14686063,-0.3429648,0.15138963,-0.30064347,0.5050265,-0.6985915,0.50844,0.66510546,0.21348684,-0.4918915,0.425889,0.44237226
sebar,0.6504497,-0.075596325,-0.079427436,-0.12507202,-0.112868115,-0.52354777,0.7147227,0.5006289,0.28531924,0.65314984,-0.28502944,0.2073305,-0.14346926,0.2519389,0.034877323,-0.15681797,0.27347577,-0.19121781,-0.49025333,0.08759676,-0.53797567,-0.06950898,0.19350436,-0.203241,0.42683256,-0.17453371,0.12150021,0.23280382,-0.49868146,-0.7543201,0.09708904,0.04081548,0.5354716,0.44943422,-0.38529158,-0.50790006,-0.27742773,0.13764448,-0.30683392,-0.16514565,-0.05292885,0.098242156,0.20059527,-0.2683064,0.41781422,0.6752183,0.05357743,-0.31884894,0.005061964,0.31208923
index,1.0531881,0.08801746,-0.28169402,-0.061463937,0.17082646,-0.71669173,0.7446306,0.31714958,0.28284323,0.4375288,-0.014419387,0.3965875,-0.1605033,0.4320148,0.08782838,0.33813953,0.5189742,-0.39422527,-0.09667015,-0.1471999,-0.10415386,0.17588131,-0.13874531,0.057284426,0.6948034,-0.7762277,0.35315698,-0.0022554009,-0.9457407,-0.4318377,0.13810208,0.13596497,0.47231582,0.6278898,-0.49888244,-0.093781225,-0.4847674,0.71162397,-0.85952276,0.36082348,-0.55253845,0.15551601,-0.1555305,0.052789148,0.3779063,0.40688708,0.012645298,-0.56260896,0.007186277,0.39080995
gaussian,1.0301709,-0.09914989,0.060153916,0.26027885,0.5208027,-0.2453563,1.0365638,-0.0050818035,-0.03965993,0.08376417,-0.03809643,0.44796944,-0.53119874,0.5435328,1.1892823,0.18405774,0.36843854,-0.14971963,-0.2430209,-0.1395302,0.34442806,0.3294313,0.24399191,-0.48872173,0.23096724,-0.68725514,0.6425214,0.6551501,-0.81134236,-0.4400783,0.5852738,0.3325249,0.28658292,0.80308336,-0.17878228,0.17876731,-0.35543805,-0.13359754,-0.033321,-0.2245925,0.061007872,-0.7126283,0.33620068,-0.90981686,0.9601876,0.57607204,-0.109524265,-0.7481117,0.5928687,0.59613764
diagnosa,0.5492206,-0.1751153,0.014240451,0.14301223,-0.12525912,-0.42019877,0.74261177,0.416704,0.0013388472,0.8076442,-0.22581637,0.2872574,-0.27455208,0.48917222,0.27207372,-0.32607046,0.37602597,0.0060648224,-0.55748314,-0.11529136,-0.6073979,0.052948818,0.08983558,-0.3960564,0.31841394,-0.13130409,0.096877255,0.39412424,-0.33460805,-0.78447425,0.26858377,0.050970905,0.23756008,0.43968642,-0.14077727,-0.43306515,-0.032472398,-0.020112403,-0.08210559,-0.15532826,0.08601238,-0.20508052,0.25775576,-0.5232991,0.55081195,0.62115234,0.19053027,0.065130174,0.04259886,0.5743198
twitter,0.7315353,-0.10099138,-0.09611582,0.050433967,0.1054398,-0.30293256,0.8716939,0.20301123,0.17726696,0.37769815,-0.15356821,0.17231078,-0.23891757,0.21240072,0.45992145,-0.04936055,0.27947405,-0.18713711,-0.2639142,-0.05829414,-0.18346033,0.008789502,0.17788,-0.24687238,0.3259248,-0.3403416,0.30418664,0.293042,-0.6144521,-0.5512863,0.22789744,0.2025022,0.37518921,0.49891183,-0.22941867,-0.2597953,-0.20847972,-0.010244183,-0.13446681,-0.20938629,-0.06894968,-0.20246226,0.24070734,-0.4570372,0.4984333,0.555714,0.037121058,-0.5162654,0.2963475,0.33559686
satu,0.5510603,-0.07464449,-0.045001384,-0.011032468,-0.1799849,-0.43221435,0.8626842,0.44613492,0.32786655,0.6976995,-0.29231742,0.07256688,-0.13989241,0.27617022,0.14677319,-0.19924031,0.3595803,-0.20649363,-0.34771964,0.0043713152,-0.6435546,-0.14283614,0.074502826,-0.13995454,0.47751486,-0.14127548,-0.0117492145,0.20015469,-0.48227584,-0.87962127,0.09201198,0.02969855,0.56996024,0.44188106,-0.19020319,-0.64141345,-0.010671654,0.12052343,-0.21576968,-0.1649654,-0.061420545,0.12689504,0.1383003,-0.35831794,0.38435367,0.6284418,0.03793719,-0.20088406,0.10153338,0.23671241
average,0.47268924,-0.0048265504,0.07229111,0.37806004,0.30625165,-0.51912093,1.2951869,0.06479875,0.741834,0.6517276,-0.23273562,0.057112843,-0.11188266,0.25867888,0.54265213,-0.10397545,0.23889805,-0.42956895,-0.09454542,-0.2032191,-0.47283015,-0.10741834,-0.15621708,0.24908803,0.39697403,-0.21999411,-0.15986688,0.28814203,-0.39770865,-0.86606944,0.33189067,0.17609945,0.667791,0.7926845,0.06923977,-0.6435896,0.24574117,0.42615846,-0.16444872,0.038334705,-0.1531912,0.15100218,0.19500694,-0.5545053,0.42565832,0.42713696,-0.2827316,0.0468777,0.37369865,0.37865075
kelas,0.7721491,-0.0850227,-0.056863498,0.038603082,0.14708719,-0.3527986,0.7196121,0.16645055,0.097292386,0.3857888,-0.07375371,0.33360782,-0.40831718,0.52176297,0.49598363,0.11085271,0.34563473,-0.07771597,-0.17120403,-0.024176868,-0.016390068,0.17376332,0.16347763,-0.26663932,0.47515807,-0.5791376,0.28607196,0.33606204,-0.8434226,-0.34972477,0.23166929,0.3139795,0.16711468,0.54669267,-0.27729753,-0.16472338,-0.15450987,0.12967607,-0.31051522,0.13226779,-0.09947063,-0.13425083,0.12268173,-0.43006688,0.4142106,0.3357926,0.2748819,-0.25703907,0.14812307,0.3425799
bentuk,0.6839487,-0.09260262,-0.063120894,0.03033771,0.002795744,-0.40852597,0.8031704,0.3159689,0.24553622,0.5485329,-0.18138175,0.19779854,-0.20853691,0.36323783,0.26065534,-0.03925813,0.33186033,-0.15710133,-0.26293752,-0.029710317,-0.31597355,0.023505656,0.10082714,-0.17554715,0.43407977,-0.34451604,0.16545314,0.2474749,-0.6078712,-0.58249307,0.17449597,0.14819247,0.38658345,0.5141211,-0.25310928,-0.36690766,-0.11333134,0.1934861,-0.2789805,-0.025542274,-0.10062717,0.003395009,0.14645348,-0.3392412,0.40706536,0.48454118,0.09521105,-0.28006864,0.12408427,0.30913568
knn,0.73262024,-0.07425342,0.11372238,0.031452477,0.45005137,-0.19530953,0.96662265,-0.098370366,0.07083717,0.072829165,-0.12403653,0.40564844,-0.6194983,0.90020573,1.0962962,0.24700972,0.60830265,-0.045253728,-0.1727953,-0.108094096,0.381187,0.36170173,0.097558916,-0.542146,0.5956965,-0.91692966,0.5049798,0.5355655,-0.8476673,-0.26521203,0.287531,0.33732724,0.17703052,0.72066414,-0.2471787,0.09142644,0.059864666,-0.03756378,-0.07929049,0.3457059,0.12238347,-0.55282235,0.046222888,-0.9797668,0.85819113,0.4484537,0.18130936,-0.15870331,0.4438023,0.58396786
internet,0.63003707,-0.1107151,-0.021716833,0.044430096,-0.1264169,-0.27569443,0.88948286,0.40703875,0.2836497,0.67758036,-0.27086496,0.06947555,-0.1413414,0.22649924,0.26774955,-0.28229043,0.31533405,-0.07615283,-0.33614227,-0.02891303,-0.4639827,-0.17697327,0.1545766,-0.30397624,0.39049175,-0.17363869,0.1396776,0.28835872,-0.50768924,-0.70754975,0.2192563,0.12519154,0.3760372,0.4543617,-0.15715988,-0.5319987,-0.074205525,-0.056438945,-0.060453065,-0.2623413,0.0007795498,-0.015505211,0.32089368,-0.46516854,0.4497664,0.64429927,0.08471313,-0.33852246,0.20526268,0.35100195
pasien,0.6889751,-0.15390702,0.04078821,0.11772315,0.23098417,-0.26387724,0.7802641,0.10549791,0.04038384,0.29173815,-0.113797076,0.27875805,-0.41044673,0.47291344,0.6762448,0.024171257,0.31671062,-0.10119566,-0.26939154,-0.097364604,0.02779224,0.19806662,0.1841982,-0.39172295,0.2898718,-0.4135599,0.37084192,0.4599616,-0.57085276,-0.4668529,0.34858823,0.19761191,0.23368886,0.55688167,-0.20565958,-0.077548705,-0.16498561,-0.06430821,-0.04497441,-0.061940935,0.06743556,-0.3840055,0.18962912,-0.66269624,0.64515775,0.4808104,0.044758007,-0.29480627,0.30861267,0.44757557
mahasiswa,0.64493954,-0.14203939,0.04042795,0.053708225,-0.0013541331,-0.2243539,0.75382835,0.26219273,0.12066269,0.47367787,-0.2041489,0.26219848,-0.35568428,0.45936874,0.49113497,-0.004104076,0.36665592,0.04525976,-0.29119754,0.06233894,-0.1341096,0.11330972,0.18912329,-0.43609226,0.39708304,-0.36723855,0.16733474,0.39913067,-0.67775667,-0.49326465,0.21637352,0.23223254,0.26113483,0.5393585,-0.15377189,-0.30228296,0.0084501635,-0.072092116,-0.095945016,-0.053293265,0.08419285,-0.16843154,0.17451662,-0.57707214,0.5462584,0.417189,0.14663348,-0.22766286,0.1998211,0.28308448
exponential,0.53528416,-0.044358056,0.11352394,0.48717928,0.3881508,-0.53910756,1.4944383,0.051504422,0.88529146,0.70494604,-0.24386993,-0.028334519,-0.12993109,0.21025497,0.64891934,-0.15358321,0.24677765,-0.47033006,-0.066829786,-0.2642304,-0.4868482,-0.13216287,-0.15584259,0.22432193,0.3857921,-0.17861377,-0.10315182,0.3132995,-0.39405513,-0.9541211,0.3304918,0.24123162,0.7766177,0.8631528,0.039887317,-0.68778056,0.2840718,0.42922837,-0.0859712,-0.06033929,-0.16136731,0.09440427,0.23108497,-0.6560076,0.4608795,0.4988687,-0.36880323,0.014504616,0.485179,0.45719072
kmeans,0.85222113,0.18644604,-0.14215097,-0.15761752,0.23428081,-0.60862255,0.6807243,0.16134034,0.23562117,0.23889682,-0.11774806,0.36885765,-0.19908649,0.48573434,0.239577,0.33026075,0.586197,-0.2800801,-0.22536534,-0.010755816,0.00073077803,0.18929793,-0.05795674,-0.041061502,0.6503145,-0.85355026,0.33721372,0.08835935,-0.80619884,-0.45964682,0.047344167,0.00594938,0.53565407,0.5907248,-0.4808982,-0.10208114,-0.26394787,0.4525877,-0.5964484,0.33298066,-0.22535922,-0.028853618,-0.11302489,-0.23007278,0.6058357,0.54457724,-0.033273377,-0.46775436,0.08960263,0.31986192
tahap,0.67479736,-0.110855095,0.005264457,0.13701476,0.11773761,-0.31975323,0.7619863,0.13681367,0.120065056,0.49990264,-0.07205847,0.24932498,-0.37436476,0.49545848,0.50425756,0.003687252,0.34831873,-0.044343438,-0.18475546,-0.11736958,-0.13291338,0.1280899,0.080154374,-0.22683604,0.42166054,-0.44016686,0.18551975,0.33477485,-0.73499006,-0.44577736,0.2620678,0.24804883,0.12771448,0.53263927,-0.10975163,-0.26202995,-0.028001266,0.138717,-0.2072631,0.07569259,-0.07206329,-0.12198935,0.17756572,-0.47897273,0.40376103,0.30717,0.18423451,-0.09283603,0.15133414,0.33648574
produksi,0.7051267,-0.1292056,-0.0471307,0.071852975,-0.100402385,-0.5584802,0.9815942,0.45034784,0.31269297,0.7362468,-0.22177032,0.1675639,-0.15613319,0.35634702,0.11941388,-0.10844603,0.31873754,-0.32665977,-0.23648614,-0.01066924,-0.62140745,-0.0422324,0.015630571,-0.014176567,0.5097386,-0.25452122,0.041872066,0.17336772,-0.65117735,-0.8344895,0.115934245,0.1352232,0.6404588,0.5359931,-0.2436773,-0.55750644,-0.09008621,0.3784329,-0.4206184,-0.08128658,-0.22550479,0.18090984,0.08510777,-0.22002658,0.29597318,0.5575316,-0.02663045,-0.27011874,0.05865511,0.27756828
optimal,0.9078793,-0.030551203,-0.12595552,0.10113986,0.3346601,-0.52723616,0.8612103,0.07584206,0.1587288,0.29806086,0.01826406,0.36954826,-0.3623191,0.585842,0.5568278,0.35315278,0.48673245,-0.32457423,0.013801688,-0.18139984,0.078921035,0.28416017,-0.08539108,0.0070417887,0.5679133,-0.7788633,0.37938565,0.18666446,-0.94579333,-0.30468547,0.24573956,0.28822166,0.29302946,0.66981596,-0.300967,0.018169548,-0.21148813,0.5181361,-0.60077685,0.326363,-0.36832234,-0.07861179,-0.07489185,-0.28206763,0.43222472,0.25792167,0.048231322,-0.37103778,0.19641027,0.39736867
produk,0.673294,-0.12598512,-0.050839376,0.06329112,-0.1688342,-0.5633001,0.97618383,0.50742424,0.35895172,0.78119326,-0.25061712,0.11026287,-0.08520951,0.2641884,0.017216766,-0.1610922,0.28497323,-0.37281725,-0.24090679,0.006561263,-0.7295522,-0.114383146,0.0131843155,0.042852096,0.49405518,-0.18342425,-0.021105295,0.11788454,-0.60435694,-0.908024,0.08431431,0.106319115,0.70560974,0.50700456,-0.23086013,-0.6395063,-0.07354185,0.3927507,-0.4184969,-0.14295249,-0.25195596,0.24986844,0.07926633,-0.15040538,0.24757455,0.592156,-0.056742955,-0.2927968,0.045742217,0.22812138
wilayah,0.6919595,-0.05207407,-0.11059832,-0.107683495,-0.15623236,-0.547038,0.7604607,0.566448,0.2941843,0.70524496,-0.2922247,0.1997747,-0.12287219,0.31988105,0.0044135917,-0.099551685,0.35863093,-0.2500597,-0.36895794,0.067267716,-0.56807894,-0.067440934,0.08967143,-0.088437185,0.5234113,-0.26046458,0.060453955,0.17501391,-0.6015672,-0.80167645,0.11183343,0.062402125,0.61330986,0.49376655,-0.36979455,-0.55479133,-0.21421798,0.24842453,-0.42637336,-0.088103086,-0.16068442,0.22352302,0.08726491,-0.18806109,0.36692637,0.6437318,0.07123828,-0.33938676,0.0016958208,0.2568295
negatif,0.83070797,-0.23000841,-0.015718898,0.079537496,0.2329616,-0.15350063,1.0773915,0.059372853,0.122562654,0.3327305,-0.15321627,0.10551067,-0.40613192,0.46833453,0.7054329,-0.14127168,0.25861955,0.020692933,-0.2678127,-0.038944613,0.024295555,0.03601573,0.45143485,-0.5323162,0.33646974,-0.44834277,0.40522137,0.5392391,-0.72724086,-0.3224585,0.3185502,0.4546886,0.14357994,0.52880055,-0.22208013,-0.1740181,-0.17268257,-0.15717217,0.09481816,-0.14022875,0.19567767,-0.36538017,0.47283268,-0.7832271,0.47347876,0.5316198,0.40191382,-0.36892718,0.39659116,0.509382
atas,0.62744594,-0.08840008,-0.071598895,0.03533393,-0.02225445,-0.38406757,0.6797033,0.33101806,0.10039825,0.55447185,-0.15224952,0.24295479,-0.26827556,0.39953348,0.25320303,-0.029662078,0.31082755,-0.11964555,-0.27616605,-0.03729088,-0.33379623,0.029735966,0.10464471,-0.18523808,0.41481677,-0.32730883,0.10865572,0.26113355,-0.6223417,-0.5480098,0.22072822,0.14962532,0.26899993,0.4451493,-0.20920691,-0.33972734,-0.113087244,0.13126142,-0.29969805,-0.021977924,-0.097987294,0.0058149216,0.1694395,-0.3299773,0.33462754,0.41897458,0.16461839,-0.19572817,0.06790399,0.3115451
evaluasi,0.71191436,-0.108660854,-0.037808377,0.046896104,0.033566445,-0.360104,0.75408053,0.23534347,0.13656333,0.5085041,-0.11548452,0.2613282,-0.32460892,0.47728646,0.3999988,0.018746423,0.3719572,-0.070128195,-0.20125131,-0.04425933,-0.19714898,0.09553066,0.08197183,-0.23197506,0.44741333,-0.44403702,0.19086945,0.2877109,-0.75030845,-0.48318914,0.19288076,0.21815789,0.24818155,0.52632356,-0.191546,-0.2869376,-0.082046896,0.15465394,-0.27916124,0.0561615,-0.09642535,-0.057058476,0.13395837,-0.4152035,0.40440232,0.35889733,0.17508774,-0.19344513,0.11141823,0.31196323
tani,0.58710647,-0.1819079,-0.008852464,0.023919767,-0.29578468,-0.4789505,0.8935602,0.61480916,0.22186838,0.9302103,-0.3550096,0.16893736,-0.15530674,0.32482025,0.046087947,-0.37741125,0.29504946,-0.11434603,-0.5811622,-0.015524935,-0.82357574,-0.16209082,0.16812493,-0.25227693,0.43512085,-0.032893065,-0.0027206324,0.30758703,-0.43723232,-1.0021101,0.20499392,0.053635363,0.518859,0.4644655,-0.2100855,-0.7355066,-0.08837771,0.042381275,-0.18596286,-0.28627545,0.0006929155,0.09492562,0.30263898,-0.34720215,0.36955816,0.761631,0.14539252,-0.11981058,0.020728888,0.3699664
machine,0.7583499,-0.12773262,0.015535152,0.13299161,0.14224264,-0.22064199,0.8026925,0.06995616,0.20416698,0.34157363,-0.12485419,0.10045402,-0.32187086,0.37083668,0.6312132,-0.07022702,0.32345262,-0.036480296,-0.2384441,-0.12547785,0.017117206,0.031805765,0.15169775,-0.32902956,0.32664356,-0.43132493,0.32003063,0.38358986,-0.5954693,-0.4074496,0.32029206,0.21494654,0.20854999,0.5596916,-0.18276523,-0.19151793,-0.07736058,-0.0752682,0.033657514,-0.081472985,0.07090036,-0.22623305,0.19003318,-0.61765873,0.53582156,0.46287727,0.008819546,-0.37938538,0.36007085,0.37242225
smoothing,0.46448588,0.021860404,0.08991959,0.5381944,0.37347886,-0.54800093,1.4693222,0.058983248,0.8768269,0.75574,-0.22497104,0.0051870826,-0.13890205,0.29715398,0.66577303,-0.11868361,0.33333513,-0.4305518,-0.029639592,-0.29511443,-0.49953872,-0.14800088,-0.2697131,0.25609556,0.4468223,-0.19225152,-0.1812637,0.3388977,-0.40159732,-0.9331416,0.35946557,0.17714462,0.74186015,0.88402337,0.10759608,-0.7184593,0.3970572,0.45993167,-0.090103604,0.06725938,-0.1729516,0.13742234,0.20774126,-0.6719047,0.4905737,0.4511969,-0.3429777,0.16424228,0.45888743,0.46633166
desa,0.67314124,-0.09106775,-0.06741338,-0.004246426,-0.025360765,-0.39745367,0.774073,0.32299507,0.17116785,0.55990046,-0.19735198,0.25824296,-0.27298748,0.52045155,0.3281159,0.019333161,0.43271363,-0.11316791,-0.26721346,-0.042314723,-0.2911112,0.07400322,0.056320712,-0.23592724,0.51653546,-0.43582067,0.19413477,0.25863916,-0.7018191,-0.5616121,0.16778272,0.17983529,0.3635688,0.5431147,-0.25408962,-0.34030667,-0.09385175,0.19800304,-0.33756974,0.04754478,-0.08753837,-0.0030022643,0.086371556,-0.36755788,0.469069,0.47246265,0.16228925,-0.21149276,0.09353215,0.34603962
gagal,0.58466804,-0.15831016,0.085318804,0.1675681,0.19929141,-0.33824506,0.915858,0.118969314,0.16797902,0.42301744,-0.170912,0.19142388,-0.3430237,0.420647,0.65155417,-0.051257174,0.29299027,-0.14119177,-0.31824917,-0.10235936,-0.17947966,0.124635085,0.1654005,-0.29969132,0.28041095,-0.30449995,0.28346026,0.4454455,-0.43238264,-0.64067376,0.30571932,0.17076999,0.31046537,0.5587061,-0.15409914,-0.27061197,-0.09044922,-0.069858186,0.0037690003,-0.114068374,0.09198601,-0.31336248,0.23358631,-0.6988622,0.62935257,0.5846356,-0.010119367,-0.16339605,0.30516312,0.46070996
jaring,0.52491206,0.0075736283,0.00676055,0.18407217,0.09860992,-0.3618026,0.94839287,0.1643225,0.45263657,0.5782793,-0.17241456,0.086353876,-0.16516738,0.2697517,0.42304,-0.108984135,0.34156713,-0.18206152,-0.18540992,-0.12845273,-0.40663296,-0.10837823,-0.062143914,-0.043824125,0.4145022,-0.26029265,-0.023140982,0.26349202,-0.4871034,-0.68819726,0.20730825,0.09447465,0.41651398,0.543418,-0.056801878,-0.520991,0.14180188,0.15148921,-0.10914564,-0.029690906,-0.08428488,-0.002370178,0.20036693,-0.5083357,0.4112133,0.48238102,-0.06468142,-0.05622936,0.27182922,0.35921216
panen,0.65134126,-0.12648726,-0.017983453,0.06463993,-0.10768816,-0.5660433,0.94961256,0.5036377,0.3363144,0.80185914,-0.288469,0.16384669,-0.15672776,0.2969071,0.10254441,-0.22166273,0.2988164,-0.2827601,-0.41887608,-0.03666444,-0.6988332,-0.08641089,0.08583338,-0.106370315,0.468194,-0.14589508,0.05042381,0.247853,-0.46316275,-0.96032447,0.18757708,0.05988795,0.63019454,0.54055303,-0.28549308,-0.63924193,-0.12732807,0.22643997,-0.28130823,-0.16057093,-0.10347269,0.10281501,0.1754842,-0.33336565,0.41288015,0.73199993,-0.04455741,-0.20758626,0.06329266,0.383578
game,0.63586104,-0.1046391,-0.0060649295,0.07583848,0.038834628,-0.30274656,0.76836604,0.2400374,0.1577723,0.47679937,-0.17935878,0.15845384,-0.23636484,0.36800396,0.4106731,-0.11622598,0.2947904,-0.07363865,-0.29802015,-0.025758868,-0.23548254,-0.0016105418,0.15278357,-0.2755283,0.3221669,-0.32677743,0.18716763,0.3364243,-0.5500489,-0.50018,0.23715764,0.15965964,0.25871852,0.49996588,-0.153013,-0.35195774,-0.09684231,-0.011358231,-0.10007568,-0.12931387,0.030849295,-0.09590793,0.2529182,-0.49190408,0.4509013,0.5036779,0.09876477,-0.26905504,0.18623191,0.31907603
cross,1.1830442,-0.025609381,-0.09223056,0.22270884,0.5849055,-0.54174614,1.0034392,-0.07692801,0.12568985,0.5567535,0.14907852,0.5984306,-0.80516565,0.97452235,1.0505058,0.39756605,0.56152654,-0.0894955,0.0006537934,-0.33595842,0.2542864,0.4679403,0.037573688,-0.19078438,0.6986791,-1.1032794,0.51252043,0.49715564,-1.4833299,-0.27620685,0.48957998,0.5434728,-0.14535041,0.90734607,-0.22483377,-0.04727083,-0.12497582,0.44730633,-0.5734941,0.53121525,-0.33674163,-0.27800992,0.09265528,-0.64737296,0.55647194,0.07540504,0.41887918,-0.09728468,0.21854405,0.5134371
validation,1.2448136,-0.012326014,-0.12048386,0.20814265,0.5848164,-0.5749214,0.9936723,-0.12733577,0.086976245,0.5022891,0.15058659,0.6277441,-0.79822224,1.0300063,1.0692033,0.4568771,0.57560134,-0.1172463,0.0049097673,-0.33097157,0.3658407,0.5069679,0.02878107,-0.21836136,0.75165164,-1.171212,0.58415157,0.501301,-1.5412596,-0.2458088,0.49749783,0.51554316,-0.14523967,0.97166204,-0.23920563,0.034032643,-0.1910956,0.45992056,-0.61645865,0.59019595,-0.36268732,-0.3059842,0.086119585,-0.67252356,0.6280827,0.11680313,0.4131104,-0.12617144,0.2416245,0.5429672
usaha,0.60282695,-0.123181544,0.001351427,0.06622335,-0.09080854,-0.361173,0.8340738,0.38771567,0.23555237,0.650728,-0.21567185,0.13447274,-0.19529076,0.32597497,0.23282567,-0.1631615,0.29061595,-0.14373821,-0.29418385,-0.017564949,-0.43825963,-0.04375319,0.11237684,-0.18950352,0.409172,-0.23299627,0.08245187,0.2852597,-0.57790965,-0.66087526,0.20028588,0.15004127,0.38684976,0.49383178,-0.15566157,-0.47590742,-0.03455174,0.12717667,-0.19258721,-0.15129907,-0.07470037,0.04318088,0.19728903,-0.37188867,0.3732558,0.4916168,0.096713215,-0.21180275,0.11231792,0.26295868
temu,0.7080271,-0.122510046,-0.056874808,0.09442969,0.017177472,-0.34903908,0.7469898,0.24736448,0.14953947,0.53764814,-0.14913653,0.22130947,-0.289341,0.42713106,0.3739233,-0.031233938,0.38073224,-0.070879765,-0.2505001,-0.07461869,-0.23850212,0.056183144,0.084401764,-0.22633027,0.43683758,-0.3921651,0.17776534,0.2746801,-0.6671413,-0.5115235,0.2214778,0.17849086,0.26984492,0.5089707,-0.20094666,-0.30492648,-0.08473064,0.13188933,-0.23291317,0.018707465,-0.09831012,-0.046082404,0.12789994,-0.39585197,0.4153299,0.41130412,0.112890795,-0.2307571,0.14497943,0.32088754
sekolah,0.6371251,-0.08141839,-0.064663455,-0.042738643,-0.13280864,-0.43809262,0.7523502,0.45870292,0.26080987,0.6300985,-0.26933745,0.18075769,-0.16650972,0.30839953,0.13014194,-0.093829505,0.34905532,-0.17457426,-0.34347925,0.05089822,-0.4568052,-0.063856445,0.11180697,-0.18701516,0.47434923,-0.26037487,0.085344866,0.22446305,-0.57334924,-0.7194617,0.12543052,0.105545714,0.51431304,0.4889111,-0.29127997,-0.5043607,-0.12904067,0.1635873,-0.29629365,-0.10271586,-0.08763347,0.10427578,0.115577966,-0.2926576,0.4055593,0.575446,0.093302436,-0.2865961,0.06928414,0.26353034
program,0.680832,-0.114830546,-0.035996985,0.0380674,-0.09230732,-0.40105098,0.85550135,0.4095259,0.23378569,0.6225241,-0.2399106,0.20354463,-0.19533527,0.3319357,0.24956559,-0.10610374,0.3133781,-0.17090847,-0.3078328,0.029023692,-0.4337203,-0.014826059,0.117285095,-0.21895377,0.42485893,-0.27400863,0.10443325,0.26238036,-0.62359554,-0.72446126,0.17533365,0.16420321,0.47926214,0.524403,-0.22724031,-0.4721031,-0.09083619,0.12043126,-0.2530239,-0.15060277,-0.092213675,0.005123071,0.15636015,-0.3741527,0.44278032,0.54905725,0.05233848,-0.3196031,0.1349179,0.27053365
single,0.49955392,0.022992622,0.08094285,0.47885966,0.3575383,-0.5566308,1.3992621,0.056086827,0.8452398,0.7276792,-0.21189168,0.03604803,-0.13715453,0.2943236,0.6063369,-0.066424906,0.32783648,-0.4424456,-0.025837757,-0.2758869,-0.4742793,-0.12139163,-0.24239264,0.2647078,0.45016795,-0.24797176,-0.16260177,0.29934478,-0.45224306,-0.9048603,0.3336343,0.19652435,0.7086764,0.8681585,0.08671947,-0.6705368,0.34442005,0.4957437,-0.1738363,0.10258249,-0.2022809,0.15842915,0.16992097,-0.60680944,0.45187604,0.42510846,-0.29973164,0.12508471,0.4137262,0.42342547
simpul,0.7357936,-0.066152744,0.0035200166,0.18397252,0.28867105,-0.3174074,0.81552404,0.0024687555,0.104453914,0.36452645,-0.026425963,0.32514,-0.43725953,0.60376155,0.7084951,0.13616289,0.39031327,-0.07282202,-0.11577314,-0.15207359,0.036962558,0.20855683,0.044436585,-0.22414817,0.41729063,-0.6125606,0.2732046,0.3852785,-0.8075374,-0.3213934,0.33582786,0.3097834,0.08005586,0.6104019,-0.08790277,-0.10104894,-0.024572756,0.18662769,-0.24379432,0.16383956,-0.09914663,-0.24092622,0.14984858,-0.5745831,0.48966885,0.23686078,0.16545695,-0.12154537,0.2373144,0.3877884
bobot,0.702227,-0.023414945,-0.024599804,0.1708626,0.17379424,-0.43526217,0.8811903,0.141964,0.3271639,0.52104497,-0.086455725,0.22896048,-0.24941824,0.41808417,0.43364736,0.062203925,0.33350933,-0.22559983,-0.1234147,-0.15098394,-0.19169138,0.06742735,-0.052142907,-0.0097282175,0.4499738,-0.44399053,0.13481937,0.26119694,-0.709247,-0.5221364,0.28301165,0.21548358,0.31710884,0.6150553,-0.1298626,-0.27910537,-0.02787118,0.34839353,-0.32258174,0.14512883,-0.21840319,0.044159506,0.118616335,-0.37762135,0.36622676,0.32735196,0.047907896,-0.18856195,0.19009988,0.35146138
hidup,0.63799417,-0.057007037,-0.048064705,-0.021771653,-0.09074874,-0.42772362,0.8093895,0.40805903,0.27595663,0.64228415,-0.25393125,0.15127498,-0.17941236,0.33907145,0.17599536,-0.12571721,0.35963517,-0.14503594,-0.3592262,0.0039337683,-0.4467479,-0.06862069,0.12623213,-0.1978666,0.47425595,-0.28867576,0.0955981,0.26213,-0.59143186,-0.6985976,0.1395044,0.10088062,0.4576104,0.5070469,-0.2514492,-0.51169324,-0.101919144,0.10264983,-0.24156983,-0.09114413,-0.05323485,0.07341655,0.17605378,-0.36643305,0.43200874,0.58811575,0.10805341,-0.2511416,0.080934554,0.29253548
dunia,0.6312628,-0.076398514,-0.06684187,-0.012340862,-0.14362672,-0.43144006,0.8294164,0.4684754,0.2901995,0.6883376,-0.28976414,0.13327514,-0.14492293,0.26744226,0.1341097,-0.19016704,0.3207449,-0.18397999,-0.39401627,0.014322265,-0.5489241,-0.12138309,0.15013121,-0.18426548,0.44098902,-0.18218122,0.08775867,0.2536925,-0.5314259,-0.7780148,0.1516722,0.07917783,0.51713246,0.46432096,-0.26253456,-0.560795,-0.1450269,0.09082774,-0.21769866,-0.2004452,-0.059976254,0.08991506,0.20305797,-0.3413082,0.3909226,0.6596889,0.09350868,-0.3103172,0.091898814,0.2971815
alami,0.60514176,-0.093367204,-0.0001467732,0.03131095,-0.02290275,-0.33572924,0.77006125,0.3408389,0.17383198,0.5259748,-0.2181562,0.19278196,-0.23037505,0.34219077,0.33612826,-0.1146274,0.30420294,-0.10156313,-0.33819297,-0.006453145,-0.32528076,0.00037792922,0.14941294,-0.25381795,0.37225124,-0.25592557,0.16523604,0.3320296,-0.51711816,-0.6194915,0.2169687,0.12745073,0.369759,0.48787296,-0.20224278,-0.39200443,-0.111091,0.024035122,-0.1472707,-0.13985996,0.0015329552,-0.064045414,0.21112476,-0.43685934,0.4572099,0.55218786,0.09211699,-0.26229966,0.14811055,0.31645042
jenis,0.66080344,-0.12932481,-0.004343416,0.026243528,-0.043248612,-0.41466036,0.8039625,0.38729277,0.18556382,0.6563498,-0.22535738,0.22896697,-0.2526325,0.41015062,0.30093402,-0.1425,0.32859698,-0.0857283,-0.42925575,0.004291756,-0.39516532,0.033534847,0.1560962,-0.29787567,0.41358662,-0.2641651,0.16802372,0.35036442,-0.5547075,-0.7049839,0.22147873,0.121189915,0.36067468,0.5149828,-0.2303074,-0.4244525,-0.11274583,0.04435308,-0.17000017,-0.09200812,0.003317247,-0.061343074,0.24140333,-0.47678718,0.49061054,0.58730596,0.12716909,-0.19935179,0.0950592,0.36026013
beda,0.71360886,-0.08319688,-0.054035317,0.018052002,0.008672461,-0.43632987,0.7800516,0.35424447,0.19884127,0.585413,-0.1665038,0.2333228,-0.24717197,0.40143946,0.28958094,-0.025461407,0.34404498,-0.13784342,-0.29892054,-0.029547812,-0.3091068,0.049110737,0.119810276,-0.1833498,0.46320713,-0.35646108,0.17275086,0.27212656,-0.6592226,-0.59153503,0.21125393,0.16790162,0.35112232,0.53829235,-0.23914422,-0.36519164,-0.14535713,0.17904638,-0.29901344,-0.031241762,-0.12204995,0.019308038,0.1563042,-0.349277,0.4099889,0.48656577,0.11410713,-0.26531294,0.090358905,0.3118316
optimum,1.1720443,0.029247575,-0.28180656,-0.021563217,0.25586307,-0.7617207,0.8274922,0.2704729,0.20990694,0.39794636,0.008771717,0.46904713,-0.3036066,0.5818252,0.310428,0.4388963,0.6155495,-0.42114913,-0.042947244,-0.16746354,0.021526067,0.29224393,-0.13491262,0.08164413,0.75198996,-0.91938025,0.460586,0.048009954,-1.1150539,-0.378036,0.20430505,0.22080511,0.44312555,0.73138314,-0.5556398,0.0060805054,-0.4657886,0.7407565,-0.9189699,0.44333923,-0.5794115,0.089618444,-0.20934735,-0.028506605,0.4432797,0.39114085,0.029471697,-0.61816496,0.071981356,0.4367234
jawa,0.8221108,-0.009349411,-0.16380611,-0.09435139,-0.07494404,-0.6552068,0.740918,0.52038574,0.3152025,0.6343758,-0.20767584,0.28959206,-0.14747341,0.336009,-0.014016289,0.06397239,0.39849788,-0.37146044,-0.262136,0.03154759,-0.4938467,-0.012959543,0.0038633957,0.019395955,0.59182453,-0.4059353,0.13591073,0.076157145,-0.7314377,-0.7187002,0.07225191,0.078696534,0.59534436,0.525108,-0.4619343,-0.47016332,-0.29141185,0.45635283,-0.6305015,0.07393184,-0.28984183,0.27133837,-0.03600748,-0.036232565,0.35884178,0.5594545,0.054662764,-0.38223773,-0.040562022,0.27739465
support,0.8422154,-0.15673096,0.0064513804,0.15999308,0.15267676,-0.28212273,0.843376,0.117462955,0.21131258,0.4116829,-0.13931873,0.114251025,-0.3198309,0.42165452,0.6141049,-0.081046104,0.33692354,-0.04931753,-0.2566788,-0.12796131,-0.018387305,0.030080823,0.16173427,-0.30147907,0.36050394,-0.47587398,0.328737,0.40023765,-0.68072075,-0.46457177,0.33866742,0.2384917,0.25526616,0.6053123,-0.22148955,-0.20747672,-0.11104021,-0.04855947,-0.020464301,-0.06613608,0.010950225,-0.19137076,0.18940471,-0.61749345,0.55423033,0.49746108,-0.015200346,-0.43922043,0.34735098,0.39454588
beli,0.62865126,-0.16826127,0.006096827,0.0779696,-0.12730423,-0.30908832,0.8578793,0.40057877,0.18215837,0.6684055,-0.23664412,0.12565781,-0.20486012,0.34315118,0.26720393,-0.1822032,0.2863536,-0.10726661,-0.324993,-0.017352683,-0.43473598,-0.025686665,0.16523385,-0.26432064,0.36542866,-0.19503017,0.118606135,0.33718365,-0.5564144,-0.6808043,0.23307528,0.16703585,0.39849517,0.5074189,-0.13114166,-0.48374307,-0.029336505,0.051280607,-0.10333372,-0.23087527,-0.023065574,-0.0046523483,0.24535607,-0.43621108,0.4018384,0.5447128,0.10292673,-0.23894843,0.15709557,0.28164816
kategori,0.68359286,-0.043140195,-0.06469428,0.0013579448,0.0055402596,-0.4270307,0.73969495,0.33631253,0.22245993,0.51141953,-0.19089606,0.21082687,-0.20818113,0.34844834,0.2564961,0.012840728,0.35235476,-0.17672789,-0.25973362,-0.010223096,-0.25813365,0.036784854,0.07032583,-0.16868664,0.44912344,-0.3769586,0.17963761,0.23868132,-0.6215144,-0.5469741,0.16047652,0.1407884,0.4001158,0.52830166,-0.26203826,-0.33118054,-0.14702827,0.1885311,-0.30959854,0.011812826,-0.12773201,0.026469408,0.09281152,-0.32532632,0.43395177,0.49424446,0.070683844,-0.3229271,0.118436866,0.30303955
clustering,0.94459903,0.11226221,-0.19355303,0.003279628,0.20098197,-0.74007314,0.8701806,0.25427067,0.36241668,0.47650293,-0.082331955,0.3618318,-0.19369885,0.46081075,0.22253135,0.29868212,0.5862816,-0.40732563,-0.12098832,-0.1299187,-0.18910262,0.1503766,-0.2042438,0.091692634,0.7142418,-0.7685677,0.25551784,0.04536356,-0.88290626,-0.588431,0.113010414,0.078704424,0.609473,0.67860687,-0.4494447,-0.2373142,-0.27466512,0.63502187,-0.7387497,0.3608729,-0.43613893,0.0974772,-0.14922489,-0.14316101,0.48950467,0.5129914,-0.08630816,-0.43147758,0.08947311,0.41951323
tangan,0.59979993,-0.11806191,-0.03224634,-0.038724445,-0.17191038,-0.43034643,0.7412038,0.48904148,0.19878282,0.7202588,-0.27920356,0.18710318,-0.17429613,0.3230638,0.11210232,-0.2193473,0.3001349,-0.063845605,-0.49620035,0.024910199,-0.55688184,-0.086553894,0.17832649,-0.27433357,0.40932807,-0.1446377,0.07834013,0.29586196,-0.48340696,-0.7531655,0.16523458,0.056421626,0.415716,0.44400787,-0.25710255,-0.54903966,-0.15358117,0.014283679,-0.18748283,-0.19535042,0.026810622,0.033433367,0.28407416,-0.34507242,0.40199354,0.64936763,0.14647155,-0.17877178,0.019271167,0.33025923
guru,0.63315594,-0.05095887,-0.08165234,0.019935546,-0.025197344,-0.39843386,0.65550154,0.34096783,0.20241421,0.48816535,-0.1555083,0.2390253,-0.20791222,0.34128782,0.21782471,0.011153861,0.329411,-0.17251684,-0.21978225,0.01434291,-0.24394669,0.03888792,0.057970908,-0.15905982,0.41564816,-0.34998065,0.13236453,0.21077853,-0.61746275,-0.51547384,0.1582492,0.15434045,0.34591803,0.48217946,-0.25577813,-0.2984288,-0.14306574,0.20936774,-0.34852985,0.0043453053,-0.15795569,0.041276917,0.044659976,-0.24539901,0.36882314,0.4010788,0.08820374,-0.28484094,0.06842407,0.26939833
moving,0.48977175,0.07928877,0.06560023,0.45976037,0.404498,-0.5939059,1.3789635,0.0015990671,0.8220162,0.6421343,-0.1636856,0.0415975,-0.12544566,0.30029705,0.60316414,-0.042214733,0.33514604,-0.47358474,0.03385091,-0.29672155,-0.49333146,-0.12559493,-0.34727564,0.3517306,0.44920078,-0.26424447,-0.20673344,0.23665886,-0.4285282,-0.8760072,0.29873568,0.12883975,0.706425,0.8064365,0.043158125,-0.6061856,0.34702528,0.5370786,-0.20780559,0.17341454,-0.26286468,0.16885123,0.11480886,-0.567983,0.38870445,0.42814004,-0.34106815,0.12623216,0.41918093,0.46427003
ulas,0.6908025,-0.17553948,-0.0006443018,0.081906006,0.08288238,-0.14928196,0.8036291,0.1944775,0.0718633,0.34761465,-0.1482327,0.15695073,-0.30122498,0.30113772,0.5232526,-0.10849816,0.22694607,-0.053124174,-0.26857325,-0.018854229,-0.07207707,-0.006124303,0.27620724,-0.3861764,0.24027881,-0.33498275,0.30107978,0.39853677,-0.5634541,-0.41308954,0.30822027,0.26180094,0.23692538,0.48504084,-0.17722987,-0.22433004,-0.14259087,-0.12799501,0.027561633,-0.20201483,0.07557238,-0.26786074,0.3223976,-0.5554118,0.47163537,0.50395733,0.14296664,-0.40381706,0.31182683,0.36713216
pengaruh,0.67372996,-0.09564652,-0.037133265,0.027898503,-0.006843501,-0.36617506,0.80027187,0.32214737,0.20986599,0.552293,-0.19775525,0.19304207,-0.23675382,0.39484265,0.3168264,-0.057853505,0.35849115,-0.11915261,-0.2903982,-0.024809834,-0.31226674,0.0039738542,0.113433205,-0.22187586,0.44318143,-0.33728614,0.1591177,0.28266844,-0.6304985,-0.5707339,0.19312519,0.15043049,0.34970653,0.51354074,-0.22702457,-0.38531184,-0.11314712,0.11079865,-0.2352382,-0.039441485,-0.059849907,-0.01401586,0.17577344,-0.40225068,0.41962054,0.5067412,0.12775268,-0.25119516,0.13417032,0.32060927
dataset,0.8486998,-0.098920986,-0.06577508,0.1507992,0.30118725,-0.37673688,0.81181276,0.055177465,0.05366372,0.361427,-0.01868953,0.37741718,-0.44919863,0.6250279,0.6668473,0.1759333,0.37987837,-0.1013454,-0.14445183,-0.1306161,0.0649572,0.25738102,0.09624484,-0.23590316,0.43712965,-0.63718975,0.33287644,0.4003032,-0.8775897,-0.29536358,0.35843274,0.32045782,0.07657577,0.6266169,-0.15946622,-0.031472404,-0.16461878,0.23642577,-0.32389262,0.15172333,-0.13245335,-0.22144131,0.17571731,-0.51855314,0.466787,0.25005263,0.19616751,-0.24522547,0.19683711,0.4175682
rumah,0.6233022,-0.10854796,-0.031330533,0.010880913,-0.13008513,-0.42027897,0.79496944,0.4587711,0.2518949,0.68631727,-0.27197102,0.16233721,-0.19297528,0.35646868,0.18286218,-0.15430194,0.32723325,-0.12679878,-0.3641679,0.028536288,-0.48533282,-0.03927349,0.13067546,-0.21028931,0.42761394,-0.2204499,0.06800619,0.30510584,-0.534619,-0.74492246,0.18483298,0.0973011,0.45753378,0.5161148,-0.21128294,-0.4970105,-0.10731063,0.11524592,-0.22991678,-0.13026984,-0.049309466,0.073821045,0.17409366,-0.36628675,0.4293968,0.57208914,0.11076749,-0.21803652,0.088667676,0.29187763
mining,0.62554467,-0.025045486,0.07851714,0.29927498,0.25893155,-0.30289462,0.9750975,-0.016108833,0.28663525,0.44493383,-0.11059731,0.1695972,-0.324718,0.45218945,0.7494198,-0.030762952,0.42494592,-0.041209508,-0.17981002,-0.19982898,-0.14816599,0.07669208,-0.047848474,-0.210825,0.38240442,-0.41360733,0.13667259,0.39822686,-0.51412386,-0.55446243,0.29934686,0.14984532,0.32974535,0.62958324,-0.02334621,-0.30080146,0.1870802,0.0729507,0.0037571255,0.06375509,0.0066550137,-0.26389036,0.16850874,-0.7304267,0.6201973,0.41223127,-0.101845704,-0.057671517,0.39105386,0.48670173
sumber,0.699552,-0.09882489,-0.060121205,-0.012839601,-0.11741079,-0.46665317,0.86334276,0.5037378,0.26546514,0.6907401,-0.2811199,0.14829777,-0.17406352,0.3100433,0.16774325,-0.13613965,0.34192717,-0.23171392,-0.33340314,0.011151455,-0.5001588,-0.074379474,0.1167675,-0.17828183,0.48285088,-0.25935945,0.08499049,0.26295462,-0.62545,-0.7664786,0.19726598,0.14668529,0.53783834,0.5278196,-0.28560784,-0.5181548,-0.12014437,0.13463244,-0.2924286,-0.14986855,-0.10847162,0.1030134,0.16821831,-0.3323768,0.39040843,0.61079806,0.07912481,-0.34831405,0.099038735,0.30113068
optimasi,0.92242306,-0.09848798,-0.11174781,0.0463491,0.22547871,-0.40825626,0.8123094,0.12286748,0.04564705,0.29545143,-0.001090116,0.38640618,-0.41112417,0.61114705,0.58340496,0.27897564,0.51250416,-0.1704957,-0.07189388,-0.12423845,0.10246951,0.2614556,0.012490404,-0.21369417,0.54312485,-0.74211204,0.4158258,0.266381,-0.9572833,-0.28387177,0.24614899,0.28282896,0.22483982,0.6165971,-0.31595492,0.019231346,-0.22498496,0.31782988,-0.4855755,0.23574515,-0.23814999,-0.16354837,0.02114906,-0.3853245,0.49228272,0.31130537,0.15881449,-0.40411428,0.20465551,0.42248064
perangkat,0.6328475,-0.07737178,-0.08276705,-0.012455678,-0.09124119,-0.4227163,0.68840396,0.3948785,0.21710859,0.62638605,-0.17784806,0.18161161,-0.18776017,0.35395074,0.1559927,-0.07931334,0.3263685,-0.121251844,-0.29150358,-0.022931391,-0.3865258,-0.04364215,0.08072733,-0.14448796,0.4530847,-0.28679124,0.10739212,0.2251419,-0.62653977,-0.5628505,0.1674646,0.114324935,0.31102997,0.46865323,-0.21541826,-0.42938018,-0.15213804,0.18530746,-0.32366234,-0.020594671,-0.12752408,0.09992872,0.17242655,-0.25237003,0.3125211,0.45271572,0.18135437,-0.20340438,0.028115965,0.2883078
sedia,0.5973804,-0.124471255,-0.09652014,-0.04547061,-0.18812086,-0.3754242,0.8553833,0.47377962,0.2545907,0.6870138,-0.3041984,0.07444439,-0.12138357,0.20847346,0.10725638,-0.25528705,0.27128896,-0.16978619,-0.4370376,0.02195162,-0.58880067,-0.16117142,0.2177363,-0.24174626,0.41776177,-0.122059375,0.08162338,0.26131427,-0.50034755,-0.78202283,0.115191296,0.07261408,0.5066259,0.41536027,-0.25573745,-0.6156461,-0.09961364,-0.017345915,-0.13902111,-0.31936422,-0.016648686,0.053162836,0.2595245,-0.36829558,0.39597943,0.6811751,0.12703735,-0.3265001,0.110351324,0.28215894
kali,0.7587712,-0.066797376,-0.04060589,0.11310298,0.21353565,-0.41139385,0.78410125,0.15896524,0.17361127,0.46100542,-0.06856995,0.29570857,-0.3538037,0.4758179,0.5301862,0.10309477,0.3292139,-0.1543008,-0.19201379,-0.11148324,-0.0792016,0.17187734,0.080501504,-0.1794181,0.44138992,-0.5135949,0.2713052,0.34945697,-0.75186783,-0.45645207,0.29852563,0.24201012,0.23808323,0.6163569,-0.19807649,-0.20062715,-0.1518246,0.21406557,-0.28572956,0.10543494,-0.14258751,-0.1290362,0.13297948,-0.4595456,0.45063284,0.35787323,0.07986091,-0.234441,0.20302397,0.38556373
capai,0.71813625,-0.071909785,-0.072709695,0.08429154,0.13856895,-0.40300852,0.7362637,0.17799269,0.1070772,0.49700978,-0.09292793,0.29428723,-0.34448949,0.5292011,0.44284645,0.077427365,0.3654933,-0.0894356,-0.17312258,-0.08111539,-0.15441173,0.15037794,0.06751749,-0.15787543,0.4501752,-0.4972033,0.21513192,0.30511042,-0.7776741,-0.4072196,0.2504262,0.2301396,0.16660605,0.56265664,-0.16669911,-0.21642096,-0.110887036,0.23639102,-0.34786668,0.12692459,-0.14031982,-0.05598446,0.12698357,-0.3838074,0.37264845,0.2865277,0.20184879,-0.16100566,0.0997654,0.31935942
hepatitis,0.65971655,-0.031158151,0.07005732,-0.11500554,0.1430294,-0.40247545,0.64880264,0.22319745,0.16310829,0.4680694,-0.23598601,0.35185847,-0.36310673,0.53970873,0.49912587,0.013889526,0.350781,0.15954918,-0.558141,0.124610186,-0.0924138,0.25234416,0.22064866,-0.4601508,0.41690925,-0.3815257,0.30680197,0.48865327,-0.5126341,-0.5467659,0.15407646,0.06825415,0.25455785,0.582878,-0.27432102,-0.23143376,-0.13951224,-0.08200638,-0.03959838,0.07580308,0.22363368,-0.26493147,0.25054926,-0.67377585,0.70250154,0.52730894,0.046668243,-0.08794695,0.045259137,0.3543208
camat,0.64336777,-0.06001889,-0.13298468,-0.061455615,-0.1468868,-0.5159528,0.70904267,0.5170441,0.25377336,0.6580813,-0.23277734,0.1770725,-0.13271376,0.30363065,-0.011939827,-0.04584448,0.3610513,-0.27735323,-0.27827182,0.01025493,-0.52147615,-0.04049481,0.0036323944,-0.056897607,0.52635306,-0.27627495,0.087147936,0.12876819,-0.5783014,-0.70960236,0.0934609,0.07175851,0.5379917,0.4621618,-0.34840506,-0.46764672,-0.18499184,0.31026846,-0.45809472,-0.0101534845,-0.23424953,0.2250318,0.017393522,-0.1323174,0.29230186,0.54390466,0.07613672,-0.30406368,0.001203688,0.26388305
jantung,0.59246194,-0.14444877,0.05311549,0.09830792,0.11459019,-0.35469064,0.84103245,0.18484376,0.20632866,0.50305945,-0.17761251,0.22739252,-0.35875842,0.4963932,0.5016695,-0.044239525,0.37530452,-0.12943417,-0.29101723,-0.10250317,-0.22531667,0.11643957,0.08832057,-0.29402852,0.41280755,-0.32833934,0.19717497,0.41346833,-0.5176925,-0.63794935,0.24024291,0.140107,0.33097473,0.56143624,-0.17842185,-0.32820743,-0.0114106275,0.06631449,-0.12445262,0.019786157,0.043318916,-0.15693732,0.1565017,-0.5950778,0.58345264,0.52104115,0.06421584,-0.05141366,0.19684324,0.4252557
virus,0.5966567,-0.059109278,0.080199175,-0.07570003,0.031703997,-0.3900317,0.653595,0.3268445,0.21635929,0.55148226,-0.26014036,0.2734831,-0.26977867,0.42241043,0.35358995,-0.07576392,0.2893833,0.09121234,-0.525426,0.114136904,-0.24513166,0.13868801,0.20705917,-0.3826557,0.36898544,-0.255465,0.20080303,0.43654093,-0.47164217,-0.61187017,0.16025053,0.061204143,0.32696444,0.53266937,-0.23481697,-0.35282436,-0.11382207,-0.05298655,-0.06335882,-0.05424668,0.1624996,-0.16416661,0.25975478,-0.5664104,0.60899097,0.54089004,0.01978444,-0.12837775,0.04587899,0.28423885
web,0.5265396,-0.09245502,0.027115682,0.081957765,-0.03230868,-0.23881646,0.7895935,0.27269417,0.19421723,0.5641765,-0.19696808,0.12748623,-0.19214739,0.30507612,0.3583626,-0.17902587,0.33094236,-0.057006408,-0.27738973,-0.080674216,-0.34710696,-0.039983217,0.06658923,-0.3151296,0.33005455,-0.19646372,0.13359748,0.29530266,-0.4507821,-0.61489564,0.21201828,0.1251931,0.3306861,0.44510725,-0.12974672,-0.36776134,0.02645198,-0.025235007,-0.051021315,-0.11478728,0.010326073,-0.12725414,0.2070775,-0.49839428,0.4624159,0.47991183,0.05352658,-0.15694796,0.2162632,0.36895373
harap,0.6582847,-0.10096913,0.0043892553,0.08855994,0.091198936,-0.33752924,0.8179208,0.21944742,0.17802769,0.479726,-0.16296962,0.22320662,-0.2777886,0.4251837,0.446926,-0.016918091,0.32291362,-0.11759032,-0.2439863,-0.050975747,-0.20486413,0.08364188,0.08959789,-0.21818043,0.39552706,-0.37047672,0.19156133,0.31955495,-0.61633307,-0.53668714,0.23235066,0.18932459,0.33941382,0.553965,-0.1618736,-0.29948437,-0.07112006,0.13770327,-0.18774143,-0.023757922,-0.05953064,-0.10746733,0.15443087,-0.45617953,0.46874037,0.4365107,0.0602136,-0.23487581,0.18550542,0.33093077
sulit,0.6284324,-0.11842593,-0.004142741,0.037226062,-0.090991,-0.40136972,0.8202885,0.40591493,0.22034761,0.68065,-0.2515847,0.17869623,-0.21105705,0.3501158,0.25199693,-0.18364878,0.30339196,-0.101434916,-0.39535776,-0.018378168,-0.45639923,-0.049456768,0.14113227,-0.25838396,0.40784448,-0.21881285,0.10496863,0.3193734,-0.54059327,-0.7193484,0.20822805,0.1183318,0.38773748,0.5063503,-0.2144265,-0.48692116,-0.09044124,0.05349613,-0.17286433,-0.14916869,-0.013003688,-0.0034556766,0.2329743,-0.4270554,0.44628087,0.5912698,0.114600934,-0.20517014,0.09169729,0.33079877
coba,0.9099095,-0.039259788,-0.073947296,0.19047433,0.39370325,-0.456705,0.83231735,-0.005476819,0.12040954,0.4291442,0.039184634,0.44052517,-0.52937794,0.7153658,0.7603939,0.2642038,0.44292676,-0.085594855,-0.07989228,-0.19704977,0.120202705,0.3263879,0.021169506,-0.18877335,0.5316601,-0.7728784,0.35571954,0.39182892,-1.0334532,-0.26539728,0.36039898,0.35462216,0.011370206,0.71568197,-0.16073993,-0.037229743,-0.13299362,0.33935347,-0.419395,0.33831206,-0.21962972,-0.2111971,0.0998848,-0.51145434,0.46802223,0.15372966,0.22149943,-0.12701802,0.18692183,0.4372606
orang,0.543611,-0.08949594,-0.00947383,0.0056200502,-0.13368559,-0.41075116,0.7616594,0.41812384,0.2928748,0.7421268,-0.2376929,0.13023418,-0.17263654,0.34987137,0.17720455,-0.19556895,0.32213375,-0.07092326,-0.39143592,-0.026670342,-0.5432049,-0.09841543,0.086230874,-0.21027443,0.44897732,-0.17683522,0.024450941,0.27114803,-0.47924665,-0.70537126,0.13361126,0.061734717,0.3722459,0.47473386,-0.20096055,-0.57924396,-0.03903977,0.075262696,-0.17274404,-0.08414914,-0.001673428,0.07968829,0.24765459,-0.38825208,0.37694538,0.5761591,0.13593706,-0.04512186,0.03982245,0.33907443
rate,0.8908297,-0.023194402,-0.09908912,0.14011784,0.27385733,-0.54435706,0.82460475,0.15080912,0.1657164,0.45129183,-0.04381385,0.37067214,-0.39555576,0.5799382,0.5338603,0.21656284,0.43427753,-0.19650573,-0.09822738,-0.1081455,-0.041697793,0.18597068,-0.034309726,-0.08964537,0.4843561,-0.7189001,0.28601715,0.2940379,-0.93841916,-0.34807092,0.30038702,0.32287404,0.22844419,0.6776754,-0.23800358,-0.11791069,-0.20555125,0.42407626,-0.5028031,0.20839223,-0.29567593,-0.102258466,0.062681936,-0.34729645,0.44577846,0.2896403,0.1381844,-0.3292183,0.15161514,0.38491085
analis,0.8207299,-0.20058356,-0.016059656,0.066062145,0.14857566,-0.14873637,0.9490675,0.14648457,0.13286288,0.3365486,-0.16288914,0.12236673,-0.29443493,0.27357188,0.6116627,-0.15121748,0.23028326,-0.067511864,-0.3381057,-0.03667215,-0.044077985,-0.020507606,0.33167997,-0.45450553,0.23468612,-0.35955936,0.39232516,0.46199694,-0.61977714,-0.45526358,0.32887372,0.25780508,0.2811841,0.5325741,-0.18918468,-0.20775041,-0.1960112,-0.15607679,0.08476603,-0.2475956,0.107168175,-0.349326,0.4547224,-0.66411096,0.5567464,0.61234283,0.09488656,-0.52526873,0.41460788,0.43576682
dampak,0.668722,-0.11593208,-0.056806434,0.016752215,-0.058573868,-0.3826907,0.82775897,0.38899887,0.21288262,0.61946386,-0.22994328,0.16559957,-0.21731517,0.36724454,0.2415272,-0.15241317,0.3061644,-0.09123664,-0.3576977,-0.014242092,-0.40931585,-0.03934753,0.19003938,-0.27593857,0.39968875,-0.25728986,0.15627879,0.3243291,-0.57776797,-0.6398552,0.18608649,0.15006308,0.36509165,0.48280278,-0.22973351,-0.44242156,-0.14182611,0.0713586,-0.18975446,-0.13334718,-0.0064726723,0.00384589,0.25592604,-0.40477157,0.40349087,0.5592186,0.18052858,-0.26662564,0.11399344,0.3437593
studi,0.64815384,-0.10298366,-0.012592698,0.041974355,0.05782199,-0.30483916,0.78331023,0.2455026,0.17538342,0.4439572,-0.16941948,0.20392682,-0.28105143,0.38541925,0.42522994,-0.023089489,0.34052294,-0.11652509,-0.27821878,-0.014958529,-0.18778343,0.056499258,0.120071925,-0.27624255,0.39472458,-0.3669154,0.20610781,0.310967,-0.61351466,-0.53839,0.21680553,0.17927545,0.33909816,0.5212917,-0.21216388,-0.2917574,-0.089332215,0.044524867,-0.16096538,-0.05216654,-0.014136865,-0.13541025,0.15856388,-0.48378772,0.5006898,0.4913508,0.06512706,-0.28408432,0.21199206,0.32218254
persentase,0.7989626,-0.10479676,-0.06104545,0.16016634,0.2442065,-0.37926817,0.8603491,0.108377814,0.11246751,0.45320424,-0.07025889,0.29977918,-0.387611,0.57290137,0.582427,0.073461235,0.36396793,-0.113351114,-0.16580315,-0.12773733,-0.064766206,0.15024617,0.10004983,-0.22923009,0.4243239,-0.55845934,0.2634586,0.3860768,-0.8202837,-0.3566698,0.33543268,0.31236443,0.13043101,0.6161547,-0.16311488,-0.121017456,-0.13936558,0.22370721,-0.29209778,0.111173004,-0.11640445,-0.16495687,0.21111812,-0.48769358,0.42621502,0.29550177,0.22818027,-0.21806784,0.18713273,0.43529543
tulis,0.6089784,-0.12956207,0.011875555,0.021460267,-0.022778427,-0.27655008,0.8275155,0.30416426,0.19677639,0.5351574,-0.23001093,0.13100486,-0.2341754,0.32502124,0.3658939,-0.16365644,0.28966218,-0.060368016,-0.35400486,-0.0017163922,-0.31673998,-0.040845357,0.19985119,-0.32217732,0.3531184,-0.24538253,0.15870081,0.35455617,-0.5232257,-0.5971315,0.20360585,0.14310822,0.3443838,0.48999488,-0.17865454,-0.4065912,-0.060260464,-0.03351319,-0.062483344,-0.15031585,0.06065873,-0.10900202,0.28323087,-0.5094395,0.46416697,0.562697,0.10147402,-0.2368713,0.18721975,0.33214232
kfold,1.1517849,-0.055134755,-0.0804466,0.22552612,0.53421205,-0.50260854,0.9774768,-0.09957781,0.0704297,0.47209916,0.11089666,0.56227505,-0.7259074,0.938424,1.0250517,0.36396605,0.5086432,-0.09376807,-0.04227107,-0.2732876,0.26656842,0.44739804,0.065449074,-0.21808171,0.65001214,-1.0092924,0.49301466,0.5212231,-1.3579012,-0.24990632,0.48848173,0.5054769,-0.1199321,0.8880202,-0.1894546,0.017890057,-0.16785815,0.38465703,-0.502147,0.4390083,-0.27839282,-0.30372417,0.14287584,-0.6677058,0.5878143,0.11331537,0.36017308,-0.15331419,0.23494522,0.5231961
negara,0.6999014,-0.11028477,-0.05762689,0.02587602,0.08117223,-0.35218245,0.8871152,0.26951435,0.21945964,0.46866176,-0.20685884,0.15619978,-0.2523538,0.36248314,0.37743562,-0.0957843,0.2906237,-0.15933819,-0.2921083,-0.009094042,-0.26415172,-0.02657266,0.22129598,-0.24606454,0.3889733,-0.3267219,0.2249074,0.33268064,-0.58601713,-0.5379936,0.23797138,0.21965434,0.39136204,0.49431574,-0.25470835,-0.32563883,-0.21218176,0.07676988,-0.16424514,-0.12171925,-0.017125536,-0.07393601,0.2584477,-0.4550197,0.3905839,0.56602436,0.16474359,-0.35414717,0.21473055,0.37368372
of,0.5308822,-0.008591356,-0.03610149,0.034585975,-0.06178844,-0.23572974,0.6075361,0.29886177,0.22380152,0.52824074,-0.15929046,0.10726021,-0.11374758,0.25242245,0.20295781,-0.10106106,0.30278173,-0.076178096,-0.19073986,-0.05521937,-0.2620705,-0.08961861,0.053155426,-0.16362949,0.35473484,-0.244537,0.14664581,0.2168027,-0.43681166,-0.43174636,0.21409431,0.1128687,0.1950686,0.36402512,-0.13262136,-0.319678,-0.036246408,0.07460818,-0.12381237,-0.04874605,-0.08147397,0.035023525,0.19112709,-0.29873693,0.35311198,0.38947076,0.07281416,-0.21123871,0.13366224,0.2871694
